digraph Tree {
node [shape=box] ;
0 [label="X[30] <= 0.5\ngini = 0.374\nsamples = 36177\nvalue = [27174, 9003]"] ;
1 [label="X[2] <= 0.071\ngini = 0.127\nsamples = 19306\nvalue = [17995, 1311]"] ;
0 -> 1 [labeldistance=2.5, labelangle=45, headlabel="True"] ;
2 [label="X[1] <= 0.767\ngini = 0.097\nsamples = 18946\nvalue = [17981, 965]"] ;
1 -> 2 ;
3 [label="X[3] <= 0.509\ngini = 0.048\nsamples = 15065\nvalue = [14693, 372]"] ;
2 -> 3 ;
4 [label="X[4] <= 0.403\ngini = 0.045\nsamples = 15001\nvalue = [14658, 343]"] ;
3 -> 4 ;
5 [label="X[0] <= 0.226\ngini = 0.027\nsamples = 12229\nvalue = [12061, 168]"] ;
4 -> 5 ;
6 [label="X[29] <= 0.5\ngini = 0.007\nsamples = 7088\nvalue = [7063, 25]"] ;
5 -> 6 ;
7 [label="X[0] <= 0.158\ngini = 0.006\nsamples = 7076\nvalue = [7054, 22]"] ;
6 -> 7 ;
8 [label="X[1] <= 0.633\ngini = 0.003\nsamples = 5649\nvalue = [5641, 8]"] ;
7 -> 8 ;
9 [label="X[45] <= 0.5\ngini = 0.002\nsamples = 5291\nvalue = [5286, 5]"] ;
8 -> 9 ;
10 [label="X[44] <= 0.5\ngini = 0.002\nsamples = 5211\nvalue = [5207, 4]"] ;
9 -> 10 ;
11 [label="X[14] <= 0.5\ngini = 0.001\nsamples = 5041\nvalue = [5038, 3]"] ;
10 -> 11 ;
12 [label="X[1] <= 0.567\ngini = 0.001\nsamples = 4866\nvalue = [4864, 2]"] ;
11 -> 12 ;
13 [label="gini = 0.0\nsamples = 2913\nvalue = [2913, 0]"] ;
12 -> 13 ;
14 [label="X[61] <= 0.5\ngini = 0.002\nsamples = 1953\nvalue = [1951, 2]"] ;
12 -> 14 ;
15 [label="gini = 0.0\nsamples = 1055\nvalue = [1055, 0]"] ;
14 -> 15 ;
16 [label="X[4] <= 0.321\ngini = 0.004\nsamples = 898\nvalue = [896, 2]"] ;
14 -> 16 ;
17 [label="X[4] <= 0.306\ngini = 0.01\nsamples = 410\nvalue = [408, 2]"] ;
16 -> 17 ;
18 [label="X[50] <= 0.5\ngini = 0.005\nsamples = 400\nvalue = [399, 1]"] ;
17 -> 18 ;
19 [label="gini = 0.0\nsamples = 330\nvalue = [330, 0]"] ;
18 -> 19 ;
20 [label="X[46] <= 0.5\ngini = 0.028\nsamples = 70\nvalue = [69, 1]"] ;
18 -> 20 ;
21 [label="gini = 0.0\nsamples = 52\nvalue = [52, 0]"] ;
20 -> 21 ;
22 [label="X[4] <= 0.24\ngini = 0.105\nsamples = 18\nvalue = [17, 1]"] ;
20 -> 22 ;
23 [label="gini = 0.0\nsamples = 6\nvalue = [6, 0]"] ;
22 -> 23 ;
24 [label="X[4] <= 0.27\ngini = 0.153\nsamples = 12\nvalue = [11, 1]"] ;
22 -> 24 ;
25 [label="X[0] <= 0.055\ngini = 0.278\nsamples = 6\nvalue = [5, 1]"] ;
24 -> 25 ;
26 [label="gini = 0.0\nsamples = 2\nvalue = [2, 0]"] ;
25 -> 26 ;
27 [label="X[0] <= 0.075\ngini = 0.375\nsamples = 4\nvalue = [3, 1]"] ;
25 -> 27 ;
28 [label="gini = 0.5\nsamples = 2\nvalue = [1, 1]"] ;
27 -> 28 ;
29 [label="gini = 0.0\nsamples = 2\nvalue = [2, 0]"] ;
27 -> 29 ;
30 [label="gini = 0.0\nsamples = 6\nvalue = [6, 0]"] ;
24 -> 30 ;
31 [label="X[42] <= 0.5\ngini = 0.18\nsamples = 10\nvalue = [9, 1]"] ;
17 -> 31 ;
32 [label="gini = 0.0\nsamples = 6\nvalue = [6, 0]"] ;
31 -> 32 ;
33 [label="X[0] <= 0.062\ngini = 0.375\nsamples = 4\nvalue = [3, 1]"] ;
31 -> 33 ;
34 [label="gini = 0.0\nsamples = 2\nvalue = [2, 0]"] ;
33 -> 34 ;
35 [label="X[0] <= 0.075\ngini = 0.5\nsamples = 2\nvalue = [1, 1]"] ;
33 -> 35 ;
36 [label="gini = 0.0\nsamples = 1\nvalue = [0, 1]"] ;
35 -> 36 ;
37 [label="gini = 0.0\nsamples = 1\nvalue = [1, 0]"] ;
35 -> 37 ;
38 [label="gini = 0.0\nsamples = 488\nvalue = [488, 0]"] ;
16 -> 38 ;
39 [label="X[57] <= 0.5\ngini = 0.011\nsamples = 175\nvalue = [174, 1]"] ;
11 -> 39 ;
40 [label="gini = 0.0\nsamples = 152\nvalue = [152, 0]"] ;
39 -> 40 ;
41 [label="X[42] <= 0.5\ngini = 0.083\nsamples = 23\nvalue = [22, 1]"] ;
39 -> 41 ;
42 [label="gini = 0.0\nsamples = 13\nvalue = [13, 0]"] ;
41 -> 42 ;
43 [label="X[4] <= 0.332\ngini = 0.18\nsamples = 10\nvalue = [9, 1]"] ;
41 -> 43 ;
44 [label="gini = 0.0\nsamples = 6\nvalue = [6, 0]"] ;
43 -> 44 ;
45 [label="X[0] <= 0.062\ngini = 0.375\nsamples = 4\nvalue = [3, 1]"] ;
43 -> 45 ;
46 [label="gini = 0.0\nsamples = 1\nvalue = [0, 1]"] ;
45 -> 46 ;
47 [label="gini = 0.0\nsamples = 3\nvalue = [3, 0]"] ;
45 -> 47 ;
48 [label="X[13] <= 0.5\ngini = 0.012\nsamples = 170\nvalue = [169, 1]"] ;
10 -> 48 ;
49 [label="gini = 0.0\nsamples = 152\nvalue = [152, 0]"] ;
48 -> 49 ;
50 [label="X[0] <= 0.089\ngini = 0.105\nsamples = 18\nvalue = [17, 1]"] ;
48 -> 50 ;
51 [label="gini = 0.0\nsamples = 16\nvalue = [16, 0]"] ;
50 -> 51 ;
52 [label="X[60] <= 0.5\ngini = 0.5\nsamples = 2\nvalue = [1, 1]"] ;
50 -> 52 ;
53 [label="gini = 0.0\nsamples = 1\nvalue = [0, 1]"] ;
52 -> 53 ;
54 [label="gini = 0.0\nsamples = 1\nvalue = [1, 0]"] ;
52 -> 54 ;
55 [label="X[6] <= 0.5\ngini = 0.025\nsamples = 80\nvalue = [79, 1]"] ;
9 -> 55 ;
56 [label="gini = 0.0\nsamples = 57\nvalue = [57, 0]"] ;
55 -> 56 ;
57 [label="X[0] <= 0.089\ngini = 0.083\nsamples = 23\nvalue = [22, 1]"] ;
55 -> 57 ;
58 [label="X[0] <= 0.075\ngini = 0.198\nsamples = 9\nvalue = [8, 1]"] ;
57 -> 58 ;
59 [label="gini = 0.0\nsamples = 8\nvalue = [8, 0]"] ;
58 -> 59 ;
60 [label="gini = 0.0\nsamples = 1\nvalue = [0, 1]"] ;
58 -> 60 ;
61 [label="gini = 0.0\nsamples = 14\nvalue = [14, 0]"] ;
57 -> 61 ;
62 [label="X[0] <= 0.13\ngini = 0.017\nsamples = 358\nvalue = [355, 3]"] ;
8 -> 62 ;
63 [label="X[35] <= 0.5\ngini = 0.007\nsamples = 286\nvalue = [285, 1]"] ;
62 -> 63 ;
64 [label="gini = 0.0\nsamples = 206\nvalue = [206, 0]"] ;
63 -> 64 ;
65 [label="X[60] <= 0.5\ngini = 0.025\nsamples = 80\nvalue = [79, 1]"] ;
63 -> 65 ;
66 [label="X[0] <= 0.089\ngini = 0.18\nsamples = 10\nvalue = [9, 1]"] ;
65 -> 66 ;
67 [label="gini = 0.0\nsamples = 7\nvalue = [7, 0]"] ;
66 -> 67 ;
68 [label="X[0] <= 0.11\ngini = 0.444\nsamples = 3\nvalue = [2, 1]"] ;
66 -> 68 ;
69 [label="gini = 0.0\nsamples = 1\nvalue = [0, 1]"] ;
68 -> 69 ;
70 [label="gini = 0.0\nsamples = 2\nvalue = [2, 0]"] ;
68 -> 70 ;
71 [label="gini = 0.0\nsamples = 70\nvalue = [70, 0]"] ;
65 -> 71 ;
72 [label="X[53] <= 0.5\ngini = 0.054\nsamples = 72\nvalue = [70, 2]"] ;
62 -> 72 ;
73 [label="X[38] <= 0.5\ngini = 0.031\nsamples = 64\nvalue = [63, 1]"] ;
72 -> 73 ;
74 [label="gini = 0.0\nsamples = 55\nvalue = [55, 0]"] ;
73 -> 74 ;
75 [label="X[1] <= 0.7\ngini = 0.198\nsamples = 9\nvalue = [8, 1]"] ;
73 -> 75 ;
76 [label="gini = 0.0\nsamples = 6\nvalue = [6, 0]"] ;
75 -> 76 ;
77 [label="X[61] <= 0.5\ngini = 0.444\nsamples = 3\nvalue = [2, 1]"] ;
75 -> 77 ;
78 [label="gini = 0.5\nsamples = 2\nvalue = [1, 1]"] ;
77 -> 78 ;
79 [label="gini = 0.0\nsamples = 1\nvalue = [1, 0]"] ;
77 -> 79 ;
80 [label="X[37] <= 0.5\ngini = 0.219\nsamples = 8\nvalue = [7, 1]"] ;
72 -> 80 ;
81 [label="gini = 0.0\nsamples = 6\nvalue = [6, 0]"] ;
80 -> 81 ;
82 [label="X[20] <= 0.5\ngini = 0.5\nsamples = 2\nvalue = [1, 1]"] ;
80 -> 82 ;
83 [label="gini = 0.0\nsamples = 1\nvalue = [1, 0]"] ;
82 -> 83 ;
84 [label="gini = 0.0\nsamples = 1\nvalue = [0, 1]"] ;
82 -> 84 ;
85 [label="X[2] <= 0.047\ngini = 0.019\nsamples = 1427\nvalue = [1413, 14]"] ;
7 -> 85 ;
86 [label="X[34] <= 0.5\ngini = 0.018\nsamples = 1424\nvalue = [1411, 13]"] ;
85 -> 86 ;
87 [label="X[8] <= 0.5\ngini = 0.017\nsamples = 1415\nvalue = [1403, 12]"] ;
86 -> 87 ;
88 [label="X[37] <= 0.5\ngini = 0.016\nsamples = 1406\nvalue = [1395, 11]"] ;
87 -> 88 ;
89 [label="X[17] <= 0.5\ngini = 0.01\nsamples = 1219\nvalue = [1213, 6]"] ;
88 -> 89 ;
90 [label="X[38] <= 0.5\ngini = 0.008\nsamples = 1204\nvalue = [1199, 5]"] ;
89 -> 90 ;
91 [label="X[33] <= 0.5\ngini = 0.005\nsamples = 1121\nvalue = [1118, 3]"] ;
90 -> 91 ;
92 [label="X[10] <= 0.5\ngini = 0.002\nsamples = 1007\nvalue = [1006, 1]"] ;
91 -> 92 ;
93 [label="gini = 0.0\nsamples = 964\nvalue = [964, 0]"] ;
92 -> 93 ;
94 [label="X[19] <= 0.5\ngini = 0.045\nsamples = 43\nvalue = [42, 1]"] ;
92 -> 94 ;
95 [label="gini = 0.0\nsamples = 41\nvalue = [41, 0]"] ;
94 -> 95 ;
96 [label="X[61] <= 0.5\ngini = 0.5\nsamples = 2\nvalue = [1, 1]"] ;
94 -> 96 ;
97 [label="gini = 0.0\nsamples = 1\nvalue = [1, 0]"] ;
96 -> 97 ;
98 [label="gini = 0.0\nsamples = 1\nvalue = [0, 1]"] ;
96 -> 98 ;
99 [label="X[45] <= 0.5\ngini = 0.034\nsamples = 114\nvalue = [112, 2]"] ;
91 -> 99 ;
100 [label="X[6] <= 0.5\ngini = 0.018\nsamples = 110\nvalue = [109, 1]"] ;
99 -> 100 ;
101 [label="gini = 0.0\nsamples = 105\nvalue = [105, 0]"] ;
100 -> 101 ;
102 [label="X[1] <= 0.567\ngini = 0.32\nsamples = 5\nvalue = [4, 1]"] ;
100 -> 102 ;
103 [label="X[61] <= 0.5\ngini = 0.5\nsamples = 2\nvalue = [1, 1]"] ;
102 -> 103 ;
104 [label="gini = 0.0\nsamples = 1\nvalue = [1, 0]"] ;
103 -> 104 ;
105 [label="gini = 0.0\nsamples = 1\nvalue = [0, 1]"] ;
103 -> 105 ;
106 [label="gini = 0.0\nsamples = 3\nvalue = [3, 0]"] ;
102 -> 106 ;
107 [label="X[60] <= 0.5\ngini = 0.375\nsamples = 4\nvalue = [3, 1]"] ;
99 -> 107 ;
108 [label="gini = 0.0\nsamples = 1\nvalue = [0, 1]"] ;
107 -> 108 ;
109 [label="gini = 0.0\nsamples = 3\nvalue = [3, 0]"] ;
107 -> 109 ;
110 [label="X[13] <= 0.5\ngini = 0.047\nsamples = 83\nvalue = [81, 2]"] ;
90 -> 110 ;
111 [label="X[27] <= 0.5\ngini = 0.025\nsamples = 80\nvalue = [79, 1]"] ;
110 -> 111 ;
112 [label="gini = 0.0\nsamples = 45\nvalue = [45, 0]"] ;
111 -> 112 ;
113 [label="X[0] <= 0.199\ngini = 0.056\nsamples = 35\nvalue = [34, 1]"] ;
111 -> 113 ;
114 [label="X[0] <= 0.185\ngini = 0.1\nsamples = 19\nvalue = [18, 1]"] ;
113 -> 114 ;
115 [label="gini = 0.0\nsamples = 11\nvalue = [11, 0]"] ;
114 -> 115 ;
116 [label="X[61] <= 0.5\ngini = 0.219\nsamples = 8\nvalue = [7, 1]"] ;
114 -> 116 ;
117 [label="X[100] <= 0.5\ngini = 0.444\nsamples = 3\nvalue = [2, 1]"] ;
116 -> 117 ;
118 [label="gini = 0.0\nsamples = 1\nvalue = [1, 0]"] ;
117 -> 118 ;
119 [label="gini = 0.5\nsamples = 2\nvalue = [1, 1]"] ;
117 -> 119 ;
120 [label="gini = 0.0\nsamples = 5\nvalue = [5, 0]"] ;
116 -> 120 ;
121 [label="gini = 0.0\nsamples = 16\nvalue = [16, 0]"] ;
113 -> 121 ;
122 [label="X[28] <= 0.5\ngini = 0.444\nsamples = 3\nvalue = [2, 1]"] ;
110 -> 122 ;
123 [label="gini = 0.0\nsamples = 2\nvalue = [2, 0]"] ;
122 -> 123 ;
124 [label="gini = 0.0\nsamples = 1\nvalue = [0, 1]"] ;
122 -> 124 ;
125 [label="X[39] <= 0.5\ngini = 0.124\nsamples = 15\nvalue = [14, 1]"] ;
89 -> 125 ;
126 [label="gini = 0.0\nsamples = 13\nvalue = [13, 0]"] ;
125 -> 126 ;
127 [label="X[4] <= 0.372\ngini = 0.5\nsamples = 2\nvalue = [1, 1]"] ;
125 -> 127 ;
128 [label="gini = 0.0\nsamples = 1\nvalue = [1, 0]"] ;
127 -> 128 ;
129 [label="gini = 0.0\nsamples = 1\nvalue = [0, 1]"] ;
127 -> 129 ;
130 [label="X[5] <= 0.5\ngini = 0.052\nsamples = 187\nvalue = [182, 5]"] ;
88 -> 130 ;
131 [label="X[1] <= 0.567\ngini = 0.042\nsamples = 185\nvalue = [181, 4]"] ;
130 -> 131 ;
132 [label="X[0] <= 0.212\ngini = 0.015\nsamples = 129\nvalue = [128, 1]"] ;
131 -> 132 ;
133 [label="gini = 0.0\nsamples = 108\nvalue = [108, 0]"] ;
132 -> 133 ;
134 [label="X[32] <= 0.5\ngini = 0.091\nsamples = 21\nvalue = [20, 1]"] ;
132 -> 134 ;
135 [label="gini = 0.0\nsamples = 8\nvalue = [8, 0]"] ;
134 -> 135 ;
136 [label="X[50] <= 0.5\ngini = 0.142\nsamples = 13\nvalue = [12, 1]"] ;
134 -> 136 ;
137 [label="gini = 0.0\nsamples = 5\nvalue = [5, 0]"] ;
136 -> 137 ;
138 [label="X[9] <= 0.5\ngini = 0.219\nsamples = 8\nvalue = [7, 1]"] ;
136 -> 138 ;
139 [label="X[100] <= 0.5\ngini = 0.32\nsamples = 5\nvalue = [4, 1]"] ;
138 -> 139 ;
140 [label="gini = 0.0\nsamples = 1\nvalue = [1, 0]"] ;
139 -> 140 ;
141 [label="X[3] <= 0.125\ngini = 0.375\nsamples = 4\nvalue = [3, 1]"] ;
139 -> 141 ;
142 [label="X[4] <= 0.347\ngini = 0.444\nsamples = 3\nvalue = [2, 1]"] ;
141 -> 142 ;
143 [label="gini = 0.0\nsamples = 1\nvalue = [1, 0]"] ;
142 -> 143 ;
144 [label="gini = 0.5\nsamples = 2\nvalue = [1, 1]"] ;
142 -> 144 ;
145 [label="gini = 0.0\nsamples = 1\nvalue = [1, 0]"] ;
141 -> 145 ;
146 [label="gini = 0.0\nsamples = 3\nvalue = [3, 0]"] ;
138 -> 146 ;
147 [label="X[50] <= 0.5\ngini = 0.101\nsamples = 56\nvalue = [53, 3]"] ;
131 -> 147 ;
148 [label="X[28] <= 0.5\ngini = 0.191\nsamples = 28\nvalue = [25, 3]"] ;
147 -> 148 ;
149 [label="X[20] <= 0.5\ngini = 0.1\nsamples = 19\nvalue = [18, 1]"] ;
148 -> 149 ;
150 [label="gini = 0.0\nsamples = 15\nvalue = [15, 0]"] ;
149 -> 150 ;
151 [label="X[0] <= 0.171\ngini = 0.375\nsamples = 4\nvalue = [3, 1]"] ;
149 -> 151 ;
152 [label="gini = 0.0\nsamples = 2\nvalue = [2, 0]"] ;
151 -> 152 ;
153 [label="X[0] <= 0.199\ngini = 0.5\nsamples = 2\nvalue = [1, 1]"] ;
151 -> 153 ;
154 [label="gini = 0.0\nsamples = 1\nvalue = [0, 1]"] ;
153 -> 154 ;
155 [label="gini = 0.0\nsamples = 1\nvalue = [1, 0]"] ;
153 -> 155 ;
156 [label="X[1] <= 0.633\ngini = 0.346\nsamples = 9\nvalue = [7, 2]"] ;
148 -> 156 ;
157 [label="X[2] <= 0.023\ngini = 0.444\nsamples = 6\nvalue = [4, 2]"] ;
156 -> 157 ;
158 [label="X[4] <= 0.27\ngini = 0.48\nsamples = 5\nvalue = [3, 2]"] ;
157 -> 158 ;
159 [label="gini = 0.0\nsamples = 1\nvalue = [1, 0]"] ;
158 -> 159 ;
160 [label="X[4] <= 0.372\ngini = 0.5\nsamples = 4\nvalue = [2, 2]"] ;
158 -> 160 ;
161 [label="gini = 0.0\nsamples = 1\nvalue = [0, 1]"] ;
160 -> 161 ;
162 [label="X[52] <= 0.5\ngini = 0.444\nsamples = 3\nvalue = [2, 1]"] ;
160 -> 162 ;
163 [label="gini = 0.0\nsamples = 1\nvalue = [1, 0]"] ;
162 -> 163 ;
164 [label="X[0] <= 0.185\ngini = 0.5\nsamples = 2\nvalue = [1, 1]"] ;
162 -> 164 ;
165 [label="gini = 0.0\nsamples = 1\nvalue = [1, 0]"] ;
164 -> 165 ;
166 [label="gini = 0.0\nsamples = 1\nvalue = [0, 1]"] ;
164 -> 166 ;
167 [label="gini = 0.0\nsamples = 1\nvalue = [1, 0]"] ;
157 -> 167 ;
168 [label="gini = 0.0\nsamples = 3\nvalue = [3, 0]"] ;
156 -> 168 ;
169 [label="gini = 0.0\nsamples = 28\nvalue = [28, 0]"] ;
147 -> 169 ;
170 [label="X[23] <= 0.5\ngini = 0.5\nsamples = 2\nvalue = [1, 1]"] ;
130 -> 170 ;
171 [label="gini = 0.0\nsamples = 1\nvalue = [0, 1]"] ;
170 -> 171 ;
172 [label="gini = 0.0\nsamples = 1\nvalue = [1, 0]"] ;
170 -> 172 ;
173 [label="X[27] <= 0.5\ngini = 0.198\nsamples = 9\nvalue = [8, 1]"] ;
87 -> 173 ;
174 [label="gini = 0.0\nsamples = 7\nvalue = [7, 0]"] ;
173 -> 174 ;
175 [label="X[0] <= 0.185\ngini = 0.5\nsamples = 2\nvalue = [1, 1]"] ;
173 -> 175 ;
176 [label="gini = 0.0\nsamples = 1\nvalue = [0, 1]"] ;
175 -> 176 ;
177 [label="gini = 0.0\nsamples = 1\nvalue = [1, 0]"] ;
175 -> 177 ;
178 [label="X[1] <= 0.7\ngini = 0.198\nsamples = 9\nvalue = [8, 1]"] ;
86 -> 178 ;
179 [label="gini = 0.0\nsamples = 8\nvalue = [8, 0]"] ;
178 -> 179 ;
180 [label="gini = 0.0\nsamples = 1\nvalue = [0, 1]"] ;
178 -> 180 ;
181 [label="X[37] <= 0.5\ngini = 0.444\nsamples = 3\nvalue = [2, 1]"] ;
85 -> 181 ;
182 [label="gini = 0.0\nsamples = 2\nvalue = [2, 0]"] ;
181 -> 182 ;
183 [label="gini = 0.0\nsamples = 1\nvalue = [0, 1]"] ;
181 -> 183 ;
184 [label="X[38] <= 0.5\ngini = 0.375\nsamples = 12\nvalue = [9, 3]"] ;
6 -> 184 ;
185 [label="X[0] <= 0.144\ngini = 0.298\nsamples = 11\nvalue = [9, 2]"] ;
184 -> 185 ;
186 [label="X[0] <= 0.048\ngini = 0.48\nsamples = 5\nvalue = [3, 2]"] ;
185 -> 186 ;
187 [label="gini = 0.0\nsamples = 3\nvalue = [3, 0]"] ;
186 -> 187 ;
188 [label="gini = 0.0\nsamples = 2\nvalue = [0, 2]"] ;
186 -> 188 ;
189 [label="gini = 0.0\nsamples = 6\nvalue = [6, 0]"] ;
185 -> 189 ;
190 [label="gini = 0.0\nsamples = 1\nvalue = [0, 1]"] ;
184 -> 190 ;
191 [label="X[44] <= 0.5\ngini = 0.054\nsamples = 5141\nvalue = [4998, 143]"] ;
5 -> 191 ;
192 [label="X[2] <= 0.047\ngini = 0.046\nsamples = 4878\nvalue = [4764, 114]"] ;
191 -> 192 ;
193 [label="X[38] <= 0.5\ngini = 0.043\nsamples = 4845\nvalue = [4738, 107]"] ;
192 -> 193 ;
194 [label="X[45] <= 0.5\ngini = 0.035\nsamples = 4450\nvalue = [4370, 80]"] ;
193 -> 194 ;
195 [label="X[29] <= 0.5\ngini = 0.033\nsamples = 4366\nvalue = [4293, 73]"] ;
194 -> 195 ;
196 [label="X[50] <= 0.5\ngini = 0.032\nsamples = 4363\nvalue = [4291, 72]"] ;
195 -> 196 ;
197 [label="X[57] <= 0.5\ngini = 0.017\nsamples = 2155\nvalue = [2137, 18]"] ;
196 -> 197 ;
198 [label="X[1] <= 0.567\ngini = 0.022\nsamples = 1633\nvalue = [1615, 18]"] ;
197 -> 198 ;
199 [label="X[8] <= 0.5\ngini = 0.014\nsamples = 1125\nvalue = [1117, 8]"] ;
198 -> 199 ;
200 [label="X[48] <= 0.5\ngini = 0.012\nsamples = 1119\nvalue = [1112, 7]"] ;
199 -> 200 ;
201 [label="X[0] <= 0.555\ngini = 0.009\nsamples = 1074\nvalue = [1069, 5]"] ;
200 -> 201 ;
202 [label="X[0] <= 0.308\ngini = 0.004\nsamples = 915\nvalue = [913, 2]"] ;
201 -> 202 ;
203 [label="X[0] <= 0.267\ngini = 0.012\nsamples = 342\nvalue = [340, 2]"] ;
202 -> 203 ;
204 [label="gini = 0.0\nsamples = 188\nvalue = [188, 0]"] ;
203 -> 204 ;
205 [label="X[41] <= 0.5\ngini = 0.026\nsamples = 154\nvalue = [152, 2]"] ;
203 -> 205 ;
206 [label="X[35] <= 0.5\ngini = 0.015\nsamples = 132\nvalue = [131, 1]"] ;
205 -> 206 ;
207 [label="gini = 0.0\nsamples = 99\nvalue = [99, 0]"] ;
206 -> 207 ;
208 [label="X[52] <= 0.5\ngini = 0.059\nsamples = 33\nvalue = [32, 1]"] ;
206 -> 208 ;
209 [label="gini = 0.0\nsamples = 24\nvalue = [24, 0]"] ;
208 -> 209 ;
210 [label="X[0] <= 0.295\ngini = 0.198\nsamples = 9\nvalue = [8, 1]"] ;
208 -> 210 ;
211 [label="gini = 0.0\nsamples = 6\nvalue = [6, 0]"] ;
210 -> 211 ;
212 [label="X[32] <= 0.5\ngini = 0.444\nsamples = 3\nvalue = [2, 1]"] ;
210 -> 212 ;
213 [label="gini = 0.0\nsamples = 1\nvalue = [1, 0]"] ;
212 -> 213 ;
214 [label="X[7] <= 0.5\ngini = 0.5\nsamples = 2\nvalue = [1, 1]"] ;
212 -> 214 ;
215 [label="gini = 0.0\nsamples = 1\nvalue = [1, 0]"] ;
214 -> 215 ;
216 [label="gini = 0.0\nsamples = 1\nvalue = [0, 1]"] ;
214 -> 216 ;
217 [label="X[28] <= 0.5\ngini = 0.087\nsamples = 22\nvalue = [21, 1]"] ;
205 -> 217 ;
218 [label="gini = 0.0\nsamples = 12\nvalue = [12, 0]"] ;
217 -> 218 ;
219 [label="X[0] <= 0.281\ngini = 0.18\nsamples = 10\nvalue = [9, 1]"] ;
217 -> 219 ;
220 [label="X[60] <= 0.5\ngini = 0.375\nsamples = 4\nvalue = [3, 1]"] ;
219 -> 220 ;
221 [label="gini = 0.5\nsamples = 2\nvalue = [1, 1]"] ;
220 -> 221 ;
222 [label="gini = 0.0\nsamples = 2\nvalue = [2, 0]"] ;
220 -> 222 ;
223 [label="gini = 0.0\nsamples = 6\nvalue = [6, 0]"] ;
219 -> 223 ;
224 [label="gini = 0.0\nsamples = 573\nvalue = [573, 0]"] ;
202 -> 224 ;
225 [label="X[10] <= 0.5\ngini = 0.037\nsamples = 159\nvalue = [156, 3]"] ;
201 -> 225 ;
226 [label="X[6] <= 0.5\ngini = 0.026\nsamples = 153\nvalue = [151, 2]"] ;
225 -> 226 ;
227 [label="X[0] <= 0.568\ngini = 0.014\nsamples = 142\nvalue = [141, 1]"] ;
226 -> 227 ;
228 [label="X[46] <= 0.5\ngini = 0.105\nsamples = 18\nvalue = [17, 1]"] ;
227 -> 228 ;
229 [label="gini = 0.0\nsamples = 15\nvalue = [15, 0]"] ;
228 -> 229 ;
230 [label="X[51] <= 0.5\ngini = 0.444\nsamples = 3\nvalue = [2, 1]"] ;
228 -> 230 ;
231 [label="gini = 0.0\nsamples = 1\nvalue = [0, 1]"] ;
230 -> 231 ;
232 [label="gini = 0.0\nsamples = 2\nvalue = [2, 0]"] ;
230 -> 232 ;
233 [label="gini = 0.0\nsamples = 124\nvalue = [124, 0]"] ;
227 -> 233 ;
234 [label="X[0] <= 0.664\ngini = 0.165\nsamples = 11\nvalue = [10, 1]"] ;
226 -> 234 ;
235 [label="gini = 0.0\nsamples = 6\nvalue = [6, 0]"] ;
234 -> 235 ;
236 [label="X[4] <= 0.332\ngini = 0.32\nsamples = 5\nvalue = [4, 1]"] ;
234 -> 236 ;
237 [label="gini = 0.0\nsamples = 4\nvalue = [4, 0]"] ;
236 -> 237 ;
238 [label="gini = 0.0\nsamples = 1\nvalue = [0, 1]"] ;
236 -> 238 ;
239 [label="X[13] <= 0.5\ngini = 0.278\nsamples = 6\nvalue = [5, 1]"] ;
225 -> 239 ;
240 [label="gini = 0.0\nsamples = 5\nvalue = [5, 0]"] ;
239 -> 240 ;
241 [label="gini = 0.0\nsamples = 1\nvalue = [0, 1]"] ;
239 -> 241 ;
242 [label="X[18] <= 0.5\ngini = 0.085\nsamples = 45\nvalue = [43, 2]"] ;
200 -> 242 ;
243 [label="X[12] <= 0.5\ngini = 0.044\nsamples = 44\nvalue = [43, 1]"] ;
242 -> 243 ;
244 [label="gini = 0.0\nsamples = 37\nvalue = [37, 0]"] ;
243 -> 244 ;
245 [label="X[32] <= 0.5\ngini = 0.245\nsamples = 7\nvalue = [6, 1]"] ;
243 -> 245 ;
246 [label="gini = 0.0\nsamples = 6\nvalue = [6, 0]"] ;
245 -> 246 ;
247 [label="gini = 0.0\nsamples = 1\nvalue = [0, 1]"] ;
245 -> 247 ;
248 [label="gini = 0.0\nsamples = 1\nvalue = [0, 1]"] ;
242 -> 248 ;
249 [label="X[51] <= 0.5\ngini = 0.278\nsamples = 6\nvalue = [5, 1]"] ;
199 -> 249 ;
250 [label="gini = 0.0\nsamples = 5\nvalue = [5, 0]"] ;
249 -> 250 ;
251 [label="gini = 0.0\nsamples = 1\nvalue = [0, 1]"] ;
249 -> 251 ;
252 [label="X[37] <= 0.5\ngini = 0.039\nsamples = 508\nvalue = [498, 10]"] ;
198 -> 252 ;
253 [label="X[35] <= 0.5\ngini = 0.026\nsamples = 450\nvalue = [444, 6]"] ;
252 -> 253 ;
254 [label="X[51] <= 0.5\ngini = 0.008\nsamples = 237\nvalue = [236, 1]"] ;
253 -> 254 ;
255 [label="gini = 0.0\nsamples = 224\nvalue = [224, 0]"] ;
254 -> 255 ;
256 [label="X[4] <= 0.219\ngini = 0.142\nsamples = 13\nvalue = [12, 1]"] ;
254 -> 256 ;
257 [label="X[46] <= 0.5\ngini = 0.5\nsamples = 2\nvalue = [1, 1]"] ;
256 -> 257 ;
258 [label="gini = 0.0\nsamples = 1\nvalue = [1, 0]"] ;
257 -> 258 ;
259 [label="gini = 0.0\nsamples = 1\nvalue = [0, 1]"] ;
257 -> 259 ;
260 [label="gini = 0.0\nsamples = 11\nvalue = [11, 0]"] ;
256 -> 260 ;
261 [label="X[60] <= 0.5\ngini = 0.046\nsamples = 213\nvalue = [208, 5]"] ;
253 -> 261 ;
262 [label="X[4] <= 0.388\ngini = 0.165\nsamples = 22\nvalue = [20, 2]"] ;
261 -> 262 ;
263 [label="X[7] <= 0.5\ngini = 0.5\nsamples = 2\nvalue = [1, 1]"] ;
262 -> 263 ;
264 [label="gini = 0.0\nsamples = 1\nvalue = [1, 0]"] ;
263 -> 264 ;
265 [label="gini = 0.0\nsamples = 1\nvalue = [0, 1]"] ;
263 -> 265 ;
266 [label="X[0] <= 0.247\ngini = 0.095\nsamples = 20\nvalue = [19, 1]"] ;
262 -> 266 ;
267 [label="X[32] <= 0.5\ngini = 0.32\nsamples = 5\nvalue = [4, 1]"] ;
266 -> 267 ;
268 [label="gini = 0.0\nsamples = 2\nvalue = [2, 0]"] ;
267 -> 268 ;
269 [label="gini = 0.444\nsamples = 3\nvalue = [2, 1]"] ;
267 -> 269 ;
270 [label="gini = 0.0\nsamples = 15\nvalue = [15, 0]"] ;
266 -> 270 ;
271 [label="X[19] <= 0.5\ngini = 0.031\nsamples = 191\nvalue = [188, 3]"] ;
261 -> 271 ;
272 [label="X[34] <= 0.5\ngini = 0.012\nsamples = 166\nvalue = [165, 1]"] ;
271 -> 272 ;
273 [label="gini = 0.0\nsamples = 151\nvalue = [151, 0]"] ;
272 -> 273 ;
274 [label="X[0] <= 0.438\ngini = 0.124\nsamples = 15\nvalue = [14, 1]"] ;
272 -> 274 ;
275 [label="X[0] <= 0.397\ngini = 0.375\nsamples = 4\nvalue = [3, 1]"] ;
274 -> 275 ;
276 [label="gini = 0.0\nsamples = 3\nvalue = [3, 0]"] ;
275 -> 276 ;
277 [label="gini = 0.0\nsamples = 1\nvalue = [0, 1]"] ;
275 -> 277 ;
278 [label="gini = 0.0\nsamples = 11\nvalue = [11, 0]"] ;
274 -> 278 ;
279 [label="X[33] <= 0.5\ngini = 0.147\nsamples = 25\nvalue = [23, 2]"] ;
271 -> 279 ;
280 [label="X[0] <= 0.308\ngini = 0.083\nsamples = 23\nvalue = [22, 1]"] ;
279 -> 280 ;
281 [label="X[0] <= 0.295\ngini = 0.219\nsamples = 8\nvalue = [7, 1]"] ;
280 -> 281 ;
282 [label="gini = 0.0\nsamples = 6\nvalue = [6, 0]"] ;
281 -> 282 ;
283 [label="X[32] <= 0.5\ngini = 0.5\nsamples = 2\nvalue = [1, 1]"] ;
281 -> 283 ;
284 [label="gini = 0.0\nsamples = 1\nvalue = [0, 1]"] ;
283 -> 284 ;
285 [label="gini = 0.0\nsamples = 1\nvalue = [1, 0]"] ;
283 -> 285 ;
286 [label="gini = 0.0\nsamples = 15\nvalue = [15, 0]"] ;
280 -> 286 ;
287 [label="X[0] <= 0.322\ngini = 0.5\nsamples = 2\nvalue = [1, 1]"] ;
279 -> 287 ;
288 [label="gini = 0.0\nsamples = 1\nvalue = [1, 0]"] ;
287 -> 288 ;
289 [label="gini = 0.0\nsamples = 1\nvalue = [0, 1]"] ;
287 -> 289 ;
290 [label="X[31] <= 0.5\ngini = 0.128\nsamples = 58\nvalue = [54, 4]"] ;
252 -> 290 ;
291 [label="X[0] <= 0.384\ngini = 0.101\nsamples = 56\nvalue = [53, 3]"] ;
290 -> 291 ;
292 [label="gini = 0.0\nsamples = 37\nvalue = [37, 0]"] ;
291 -> 292 ;
293 [label="X[0] <= 0.432\ngini = 0.266\nsamples = 19\nvalue = [16, 3]"] ;
291 -> 293 ;
294 [label="X[4] <= 0.388\ngini = 0.469\nsamples = 8\nvalue = [5, 3]"] ;
293 -> 294 ;
295 [label="gini = 0.0\nsamples = 1\nvalue = [0, 1]"] ;
294 -> 295 ;
296 [label="X[28] <= 0.5\ngini = 0.408\nsamples = 7\nvalue = [5, 2]"] ;
294 -> 296 ;
297 [label="gini = 0.0\nsamples = 3\nvalue = [3, 0]"] ;
296 -> 297 ;
298 [label="X[1] <= 0.633\ngini = 0.5\nsamples = 4\nvalue = [2, 2]"] ;
296 -> 298 ;
299 [label="X[10] <= 0.5\ngini = 0.444\nsamples = 3\nvalue = [1, 2]"] ;
298 -> 299 ;
300 [label="gini = 0.0\nsamples = 2\nvalue = [0, 2]"] ;
299 -> 300 ;
301 [label="gini = 0.0\nsamples = 1\nvalue = [1, 0]"] ;
299 -> 301 ;
302 [label="gini = 0.0\nsamples = 1\nvalue = [1, 0]"] ;
298 -> 302 ;
303 [label="gini = 0.0\nsamples = 11\nvalue = [11, 0]"] ;
293 -> 303 ;
304 [label="X[20] <= 0.5\ngini = 0.5\nsamples = 2\nvalue = [1, 1]"] ;
290 -> 304 ;
305 [label="gini = 0.0\nsamples = 1\nvalue = [0, 1]"] ;
304 -> 305 ;
306 [label="gini = 0.0\nsamples = 1\nvalue = [1, 0]"] ;
304 -> 306 ;
307 [label="gini = 0.0\nsamples = 522\nvalue = [522, 0]"] ;
197 -> 307 ;
308 [label="X[0] <= 0.404\ngini = 0.048\nsamples = 2208\nvalue = [2154, 54]"] ;
196 -> 308 ;
309 [label="X[27] <= 0.5\ngini = 0.026\nsamples = 1067\nvalue = [1053, 14]"] ;
308 -> 309 ;
310 [label="X[6] <= 0.5\ngini = 0.01\nsamples = 790\nvalue = [786, 4]"] ;
309 -> 310 ;
311 [label="X[47] <= 0.5\ngini = 0.008\nsamples = 763\nvalue = [760, 3]"] ;
310 -> 311 ;
312 [label="X[0] <= 0.24\ngini = 0.005\nsamples = 727\nvalue = [725, 2]"] ;
311 -> 312 ;
313 [label="X[33] <= 0.5\ngini = 0.026\nsamples = 77\nvalue = [76, 1]"] ;
312 -> 313 ;
314 [label="gini = 0.0\nsamples = 68\nvalue = [68, 0]"] ;
313 -> 314 ;
315 [label="X[35] <= 0.5\ngini = 0.198\nsamples = 9\nvalue = [8, 1]"] ;
313 -> 315 ;
316 [label="gini = 0.0\nsamples = 7\nvalue = [7, 0]"] ;
315 -> 316 ;
317 [label="X[4] <= 0.296\ngini = 0.5\nsamples = 2\nvalue = [1, 1]"] ;
315 -> 317 ;
318 [label="gini = 0.0\nsamples = 1\nvalue = [1, 0]"] ;
317 -> 318 ;
319 [label="gini = 0.0\nsamples = 1\nvalue = [0, 1]"] ;
317 -> 319 ;
320 [label="X[0] <= 0.363\ngini = 0.003\nsamples = 650\nvalue = [649, 1]"] ;
312 -> 320 ;
321 [label="gini = 0.0\nsamples = 507\nvalue = [507, 0]"] ;
320 -> 321 ;
322 [label="X[0] <= 0.377\ngini = 0.014\nsamples = 143\nvalue = [142, 1]"] ;
320 -> 322 ;
323 [label="X[37] <= 0.5\ngini = 0.059\nsamples = 33\nvalue = [32, 1]"] ;
322 -> 323 ;
324 [label="gini = 0.0\nsamples = 25\nvalue = [25, 0]"] ;
323 -> 324 ;
325 [label="X[32] <= 0.5\ngini = 0.219\nsamples = 8\nvalue = [7, 1]"] ;
323 -> 325 ;
326 [label="X[1] <= 0.467\ngini = 0.32\nsamples = 5\nvalue = [4, 1]"] ;
325 -> 326 ;
327 [label="gini = 0.0\nsamples = 2\nvalue = [2, 0]"] ;
326 -> 327 ;
328 [label="X[7] <= 0.5\ngini = 0.444\nsamples = 3\nvalue = [2, 1]"] ;
326 -> 328 ;
329 [label="gini = 0.0\nsamples = 1\nvalue = [1, 0]"] ;
328 -> 329 ;
330 [label="gini = 0.5\nsamples = 2\nvalue = [1, 1]"] ;
328 -> 330 ;
331 [label="gini = 0.0\nsamples = 3\nvalue = [3, 0]"] ;
325 -> 331 ;
332 [label="gini = 0.0\nsamples = 110\nvalue = [110, 0]"] ;
322 -> 332 ;
333 [label="X[0] <= 0.267\ngini = 0.054\nsamples = 36\nvalue = [35, 1]"] ;
311 -> 333 ;
334 [label="X[20] <= 0.5\ngini = 0.18\nsamples = 10\nvalue = [9, 1]"] ;
333 -> 334 ;
335 [label="gini = 0.0\nsamples = 7\nvalue = [7, 0]"] ;
334 -> 335 ;
336 [label="X[0] <= 0.253\ngini = 0.444\nsamples = 3\nvalue = [2, 1]"] ;
334 -> 336 ;
337 [label="gini = 0.0\nsamples = 2\nvalue = [2, 0]"] ;
336 -> 337 ;
338 [label="gini = 0.0\nsamples = 1\nvalue = [0, 1]"] ;
336 -> 338 ;
339 [label="gini = 0.0\nsamples = 26\nvalue = [26, 0]"] ;
333 -> 339 ;
340 [label="X[40] <= 0.5\ngini = 0.071\nsamples = 27\nvalue = [26, 1]"] ;
310 -> 340 ;
341 [label="gini = 0.0\nsamples = 25\nvalue = [25, 0]"] ;
340 -> 341 ;
342 [label="X[0] <= 0.336\ngini = 0.5\nsamples = 2\nvalue = [1, 1]"] ;
340 -> 342 ;
343 [label="gini = 0.0\nsamples = 1\nvalue = [0, 1]"] ;
342 -> 343 ;
344 [label="gini = 0.0\nsamples = 1\nvalue = [1, 0]"] ;
342 -> 344 ;
345 [label="X[74] <= 0.5\ngini = 0.07\nsamples = 277\nvalue = [267, 10]"] ;
309 -> 345 ;
346 [label="X[5] <= 0.5\ngini = 0.063\nsamples = 276\nvalue = [267, 9]"] ;
345 -> 346 ;
347 [label="X[0] <= 0.349\ngini = 0.052\nsamples = 263\nvalue = [256, 7]"] ;
346 -> 347 ;
348 [label="X[0] <= 0.322\ngini = 0.07\nsamples = 193\nvalue = [186, 7]"] ;
347 -> 348 ;
349 [label="X[48] <= 0.5\ngini = 0.041\nsamples = 143\nvalue = [140, 3]"] ;
348 -> 349 ;
350 [label="X[9] <= 0.5\ngini = 0.029\nsamples = 135\nvalue = [133, 2]"] ;
349 -> 350 ;
351 [label="X[35] <= 0.5\ngini = 0.016\nsamples = 124\nvalue = [123, 1]"] ;
350 -> 351 ;
352 [label="gini = 0.0\nsamples = 95\nvalue = [95, 0]"] ;
351 -> 352 ;
353 [label="X[28] <= 0.5\ngini = 0.067\nsamples = 29\nvalue = [28, 1]"] ;
351 -> 353 ;
354 [label="gini = 0.0\nsamples = 20\nvalue = [20, 0]"] ;
353 -> 354 ;
355 [label="X[0] <= 0.253\ngini = 0.198\nsamples = 9\nvalue = [8, 1]"] ;
353 -> 355 ;
356 [label="X[0] <= 0.24\ngini = 0.444\nsamples = 3\nvalue = [2, 1]"] ;
355 -> 356 ;
357 [label="gini = 0.0\nsamples = 1\nvalue = [1, 0]"] ;
356 -> 357 ;
358 [label="gini = 0.5\nsamples = 2\nvalue = [1, 1]"] ;
356 -> 358 ;
359 [label="gini = 0.0\nsamples = 6\nvalue = [6, 0]"] ;
355 -> 359 ;
360 [label="X[0] <= 0.308\ngini = 0.165\nsamples = 11\nvalue = [10, 1]"] ;
350 -> 360 ;
361 [label="gini = 0.0\nsamples = 9\nvalue = [9, 0]"] ;
360 -> 361 ;
362 [label="X[41] <= 0.5\ngini = 0.5\nsamples = 2\nvalue = [1, 1]"] ;
360 -> 362 ;
363 [label="gini = 0.0\nsamples = 1\nvalue = [0, 1]"] ;
362 -> 363 ;
364 [label="gini = 0.0\nsamples = 1\nvalue = [1, 0]"] ;
362 -> 364 ;
365 [label="X[60] <= 0.5\ngini = 0.219\nsamples = 8\nvalue = [7, 1]"] ;
349 -> 365 ;
366 [label="gini = 0.0\nsamples = 6\nvalue = [6, 0]"] ;
365 -> 366 ;
367 [label="X[33] <= 0.5\ngini = 0.5\nsamples = 2\nvalue = [1, 1]"] ;
365 -> 367 ;
368 [label="gini = 0.0\nsamples = 1\nvalue = [1, 0]"] ;
367 -> 368 ;
369 [label="gini = 0.0\nsamples = 1\nvalue = [0, 1]"] ;
367 -> 369 ;
370 [label="X[37] <= 0.5\ngini = 0.147\nsamples = 50\nvalue = [46, 4]"] ;
348 -> 370 ;
371 [label="X[47] <= 0.5\ngini = 0.1\nsamples = 38\nvalue = [36, 2]"] ;
370 -> 371 ;
372 [label="X[42] <= 0.5\ngini = 0.059\nsamples = 33\nvalue = [32, 1]"] ;
371 -> 372 ;
373 [label="gini = 0.0\nsamples = 28\nvalue = [28, 0]"] ;
372 -> 373 ;
374 [label="X[60] <= 0.5\ngini = 0.32\nsamples = 5\nvalue = [4, 1]"] ;
372 -> 374 ;
375 [label="gini = 0.0\nsamples = 4\nvalue = [4, 0]"] ;
374 -> 375 ;
376 [label="gini = 0.0\nsamples = 1\nvalue = [0, 1]"] ;
374 -> 376 ;
377 [label="X[32] <= 0.5\ngini = 0.32\nsamples = 5\nvalue = [4, 1]"] ;
371 -> 377 ;
378 [label="gini = 0.0\nsamples = 3\nvalue = [3, 0]"] ;
377 -> 378 ;
379 [label="X[60] <= 0.5\ngini = 0.5\nsamples = 2\nvalue = [1, 1]"] ;
377 -> 379 ;
380 [label="gini = 0.0\nsamples = 1\nvalue = [1, 0]"] ;
379 -> 380 ;
381 [label="gini = 0.0\nsamples = 1\nvalue = [0, 1]"] ;
379 -> 381 ;
382 [label="X[28] <= 0.5\ngini = 0.278\nsamples = 12\nvalue = [10, 2]"] ;
370 -> 382 ;
383 [label="gini = 0.0\nsamples = 5\nvalue = [5, 0]"] ;
382 -> 383 ;
384 [label="X[7] <= 0.5\ngini = 0.408\nsamples = 7\nvalue = [5, 2]"] ;
382 -> 384 ;
385 [label="gini = 0.0\nsamples = 3\nvalue = [3, 0]"] ;
384 -> 385 ;
386 [label="X[0] <= 0.336\ngini = 0.5\nsamples = 4\nvalue = [2, 2]"] ;
384 -> 386 ;
387 [label="gini = 0.444\nsamples = 3\nvalue = [1, 2]"] ;
386 -> 387 ;
388 [label="gini = 0.0\nsamples = 1\nvalue = [1, 0]"] ;
386 -> 388 ;
389 [label="gini = 0.0\nsamples = 70\nvalue = [70, 0]"] ;
347 -> 389 ;
390 [label="X[28] <= 0.5\ngini = 0.26\nsamples = 13\nvalue = [11, 2]"] ;
346 -> 390 ;
391 [label="gini = 0.0\nsamples = 7\nvalue = [7, 0]"] ;
390 -> 391 ;
392 [label="X[35] <= 0.5\ngini = 0.444\nsamples = 6\nvalue = [4, 2]"] ;
390 -> 392 ;
393 [label="gini = 0.0\nsamples = 3\nvalue = [3, 0]"] ;
392 -> 393 ;
394 [label="X[61] <= 0.5\ngini = 0.444\nsamples = 3\nvalue = [1, 2]"] ;
392 -> 394 ;
395 [label="gini = 0.0\nsamples = 1\nvalue = [1, 0]"] ;
394 -> 395 ;
396 [label="gini = 0.0\nsamples = 2\nvalue = [0, 2]"] ;
394 -> 396 ;
397 [label="gini = 0.0\nsamples = 1\nvalue = [0, 1]"] ;
345 -> 397 ;
398 [label="X[94] <= 0.5\ngini = 0.068\nsamples = 1141\nvalue = [1101, 40]"] ;
308 -> 398 ;
399 [label="X[42] <= 0.5\ngini = 0.065\nsamples = 1134\nvalue = [1096, 38]"] ;
398 -> 399 ;
400 [label="X[61] <= 0.5\ngini = 0.081\nsamples = 872\nvalue = [835, 37]"] ;
399 -> 400 ;
401 [label="X[46] <= 0.5\ngini = 0.055\nsamples = 561\nvalue = [545, 16]"] ;
400 -> 401 ;
402 [label="X[6] <= 0.5\ngini = 0.042\nsamples = 463\nvalue = [453, 10]"] ;
401 -> 402 ;
403 [label="X[0] <= 0.432\ngini = 0.033\nsamples = 416\nvalue = [409, 7]"] ;
402 -> 403 ;
404 [label="X[32] <= 0.5\ngini = 0.108\nsamples = 35\nvalue = [33, 2]"] ;
403 -> 404 ;
405 [label="X[4] <= 0.372\ngini = 0.069\nsamples = 28\nvalue = [27, 1]"] ;
404 -> 405 ;
406 [label="X[4] <= 0.362\ngini = 0.198\nsamples = 9\nvalue = [8, 1]"] ;
405 -> 406 ;
407 [label="gini = 0.0\nsamples = 6\nvalue = [6, 0]"] ;
406 -> 407 ;
408 [label="X[59] <= 0.5\ngini = 0.444\nsamples = 3\nvalue = [2, 1]"] ;
406 -> 408 ;
409 [label="gini = 0.0\nsamples = 2\nvalue = [2, 0]"] ;
408 -> 409 ;
410 [label="gini = 0.0\nsamples = 1\nvalue = [0, 1]"] ;
408 -> 410 ;
411 [label="gini = 0.0\nsamples = 19\nvalue = [19, 0]"] ;
405 -> 411 ;
412 [label="X[27] <= 0.5\ngini = 0.245\nsamples = 7\nvalue = [6, 1]"] ;
404 -> 412 ;
413 [label="gini = 0.0\nsamples = 4\nvalue = [4, 0]"] ;
412 -> 413 ;
414 [label="X[35] <= 0.5\ngini = 0.444\nsamples = 3\nvalue = [2, 1]"] ;
412 -> 414 ;
415 [label="gini = 0.0\nsamples = 1\nvalue = [1, 0]"] ;
414 -> 415 ;
416 [label="gini = 0.5\nsamples = 2\nvalue = [1, 1]"] ;
414 -> 416 ;
417 [label="X[9] <= 0.5\ngini = 0.026\nsamples = 381\nvalue = [376, 5]"] ;
403 -> 417 ;
418 [label="X[23] <= 0.5\ngini = 0.021\nsamples = 369\nvalue = [365, 4]"] ;
417 -> 418 ;
419 [label="gini = 0.0\nsamples = 177\nvalue = [177, 0]"] ;
418 -> 419 ;
420 [label="X[0] <= 0.788\ngini = 0.041\nsamples = 192\nvalue = [188, 4]"] ;
418 -> 420 ;
421 [label="X[0] <= 0.541\ngini = 0.032\nsamples = 182\nvalue = [179, 3]"] ;
420 -> 421 ;
422 [label="gini = 0.0\nsamples = 83\nvalue = [83, 0]"] ;
421 -> 422 ;
423 [label="X[0] <= 0.568\ngini = 0.059\nsamples = 99\nvalue = [96, 3]"] ;
421 -> 423 ;
424 [label="X[41] <= 0.5\ngini = 0.231\nsamples = 15\nvalue = [13, 2]"] ;
423 -> 424 ;
425 [label="X[34] <= 0.5\ngini = 0.133\nsamples = 14\nvalue = [13, 1]"] ;
424 -> 425 ;
426 [label="gini = 0.0\nsamples = 8\nvalue = [8, 0]"] ;
425 -> 426 ;
427 [label="X[4] <= 0.383\ngini = 0.278\nsamples = 6\nvalue = [5, 1]"] ;
425 -> 427 ;
428 [label="gini = 0.0\nsamples = 4\nvalue = [4, 0]"] ;
427 -> 428 ;
429 [label="X[0] <= 0.555\ngini = 0.5\nsamples = 2\nvalue = [1, 1]"] ;
427 -> 429 ;
430 [label="gini = 0.0\nsamples = 1\nvalue = [1, 0]"] ;
429 -> 430 ;
431 [label="gini = 0.0\nsamples = 1\nvalue = [0, 1]"] ;
429 -> 431 ;
432 [label="gini = 0.0\nsamples = 1\nvalue = [0, 1]"] ;
424 -> 432 ;
433 [label="X[0] <= 0.637\ngini = 0.024\nsamples = 84\nvalue = [83, 1]"] ;
423 -> 433 ;
434 [label="gini = 0.0\nsamples = 44\nvalue = [44, 0]"] ;
433 -> 434 ;
435 [label="X[0] <= 0.651\ngini = 0.049\nsamples = 40\nvalue = [39, 1]"] ;
433 -> 435 ;
436 [label="X[4] <= 0.388\ngini = 0.198\nsamples = 9\nvalue = [8, 1]"] ;
435 -> 436 ;
437 [label="gini = 0.0\nsamples = 6\nvalue = [6, 0]"] ;
436 -> 437 ;
438 [label="X[35] <= 0.5\ngini = 0.444\nsamples = 3\nvalue = [2, 1]"] ;
436 -> 438 ;
439 [label="gini = 0.0\nsamples = 1\nvalue = [1, 0]"] ;
438 -> 439 ;
440 [label="gini = 0.5\nsamples = 2\nvalue = [1, 1]"] ;
438 -> 440 ;
441 [label="gini = 0.0\nsamples = 31\nvalue = [31, 0]"] ;
435 -> 441 ;
442 [label="X[32] <= 0.5\ngini = 0.18\nsamples = 10\nvalue = [9, 1]"] ;
420 -> 442 ;
443 [label="gini = 0.0\nsamples = 9\nvalue = [9, 0]"] ;
442 -> 443 ;
444 [label="gini = 0.0\nsamples = 1\nvalue = [0, 1]"] ;
442 -> 444 ;
445 [label="X[47] <= 0.5\ngini = 0.153\nsamples = 12\nvalue = [11, 1]"] ;
417 -> 445 ;
446 [label="gini = 0.0\nsamples = 11\nvalue = [11, 0]"] ;
445 -> 446 ;
447 [label="gini = 0.0\nsamples = 1\nvalue = [0, 1]"] ;
445 -> 447 ;
448 [label="X[23] <= 0.5\ngini = 0.12\nsamples = 47\nvalue = [44, 3]"] ;
402 -> 448 ;
449 [label="gini = 0.0\nsamples = 25\nvalue = [25, 0]"] ;
448 -> 449 ;
450 [label="X[4] <= 0.173\ngini = 0.236\nsamples = 22\nvalue = [19, 3]"] ;
448 -> 450 ;
451 [label="X[4] <= 0.133\ngini = 0.444\nsamples = 3\nvalue = [2, 1]"] ;
450 -> 451 ;
452 [label="gini = 0.0\nsamples = 2\nvalue = [2, 0]"] ;
451 -> 452 ;
453 [label="gini = 0.0\nsamples = 1\nvalue = [0, 1]"] ;
451 -> 453 ;
454 [label="X[4] <= 0.321\ngini = 0.188\nsamples = 19\nvalue = [17, 2]"] ;
450 -> 454 ;
455 [label="gini = 0.0\nsamples = 5\nvalue = [5, 0]"] ;
454 -> 455 ;
456 [label="X[4] <= 0.362\ngini = 0.245\nsamples = 14\nvalue = [12, 2]"] ;
454 -> 456 ;
457 [label="X[34] <= 0.5\ngini = 0.5\nsamples = 2\nvalue = [1, 1]"] ;
456 -> 457 ;
458 [label="gini = 0.0\nsamples = 1\nvalue = [1, 0]"] ;
457 -> 458 ;
459 [label="gini = 0.0\nsamples = 1\nvalue = [0, 1]"] ;
457 -> 459 ;
460 [label="X[0] <= 0.527\ngini = 0.153\nsamples = 12\nvalue = [11, 1]"] ;
456 -> 460 ;
461 [label="X[0] <= 0.507\ngini = 0.32\nsamples = 5\nvalue = [4, 1]"] ;
460 -> 461 ;
462 [label="gini = 0.0\nsamples = 3\nvalue = [3, 0]"] ;
461 -> 462 ;
463 [label="gini = 0.5\nsamples = 2\nvalue = [1, 1]"] ;
461 -> 463 ;
464 [label="gini = 0.0\nsamples = 7\nvalue = [7, 0]"] ;
460 -> 464 ;
465 [label="X[0] <= 0.781\ngini = 0.115\nsamples = 98\nvalue = [92, 6]"] ;
401 -> 465 ;
466 [label="X[34] <= 0.5\ngini = 0.099\nsamples = 96\nvalue = [91, 5]"] ;
465 -> 466 ;
467 [label="X[27] <= 0.5\ngini = 0.034\nsamples = 58\nvalue = [57, 1]"] ;
466 -> 467 ;
468 [label="gini = 0.0\nsamples = 45\nvalue = [45, 0]"] ;
467 -> 468 ;
469 [label="X[0] <= 0.473\ngini = 0.142\nsamples = 13\nvalue = [12, 1]"] ;
467 -> 469 ;
470 [label="X[4] <= 0.388\ngini = 0.32\nsamples = 5\nvalue = [4, 1]"] ;
469 -> 470 ;
471 [label="X[4] <= 0.347\ngini = 0.5\nsamples = 2\nvalue = [1, 1]"] ;
470 -> 471 ;
472 [label="gini = 0.0\nsamples = 1\nvalue = [1, 0]"] ;
471 -> 472 ;
473 [label="gini = 0.0\nsamples = 1\nvalue = [0, 1]"] ;
471 -> 473 ;
474 [label="gini = 0.0\nsamples = 3\nvalue = [3, 0]"] ;
470 -> 474 ;
475 [label="gini = 0.0\nsamples = 8\nvalue = [8, 0]"] ;
469 -> 475 ;
476 [label="X[0] <= 0.575\ngini = 0.188\nsamples = 38\nvalue = [34, 4]"] ;
466 -> 476 ;
477 [label="X[0] <= 0.555\ngini = 0.355\nsamples = 13\nvalue = [10, 3]"] ;
476 -> 477 ;
478 [label="gini = 0.0\nsamples = 10\nvalue = [10, 0]"] ;
477 -> 478 ;
479 [label="gini = 0.0\nsamples = 3\nvalue = [0, 3]"] ;
477 -> 479 ;
480 [label="X[4] <= 0.388\ngini = 0.077\nsamples = 25\nvalue = [24, 1]"] ;
476 -> 480 ;
481 [label="gini = 0.0\nsamples = 20\nvalue = [20, 0]"] ;
480 -> 481 ;
482 [label="X[0] <= 0.664\ngini = 0.32\nsamples = 5\nvalue = [4, 1]"] ;
480 -> 482 ;
483 [label="gini = 0.0\nsamples = 3\nvalue = [3, 0]"] ;
482 -> 483 ;
484 [label="gini = 0.5\nsamples = 2\nvalue = [1, 1]"] ;
482 -> 484 ;
485 [label="X[0] <= 0.836\ngini = 0.5\nsamples = 2\nvalue = [1, 1]"] ;
465 -> 485 ;
486 [label="gini = 0.0\nsamples = 1\nvalue = [0, 1]"] ;
485 -> 486 ;
487 [label="gini = 0.0\nsamples = 1\nvalue = [1, 0]"] ;
485 -> 487 ;
488 [label="X[83] <= 0.5\ngini = 0.126\nsamples = 311\nvalue = [290, 21]"] ;
400 -> 488 ;
489 [label="X[66] <= 0.5\ngini = 0.121\nsamples = 310\nvalue = [290, 20]"] ;
488 -> 489 ;
490 [label="X[4] <= 0.082\ngini = 0.116\nsamples = 308\nvalue = [289, 19]"] ;
489 -> 490 ;
491 [label="X[39] <= 0.5\ngini = 0.5\nsamples = 2\nvalue = [1, 1]"] ;
490 -> 491 ;
492 [label="gini = 0.0\nsamples = 1\nvalue = [0, 1]"] ;
491 -> 492 ;
493 [label="gini = 0.0\nsamples = 1\nvalue = [1, 0]"] ;
491 -> 493 ;
494 [label="X[1] <= 0.367\ngini = 0.111\nsamples = 306\nvalue = [288, 18]"] ;
490 -> 494 ;
495 [label="gini = 0.0\nsamples = 57\nvalue = [57, 0]"] ;
494 -> 495 ;
496 [label="X[0] <= 0.678\ngini = 0.134\nsamples = 249\nvalue = [231, 18]"] ;
494 -> 496 ;
497 [label="X[7] <= 0.5\ngini = 0.115\nsamples = 229\nvalue = [215, 14]"] ;
496 -> 497 ;
498 [label="X[0] <= 0.637\ngini = 0.03\nsamples = 66\nvalue = [65, 1]"] ;
497 -> 498 ;
499 [label="gini = 0.0\nsamples = 60\nvalue = [60, 0]"] ;
498 -> 499 ;
500 [label="X[28] <= 0.5\ngini = 0.278\nsamples = 6\nvalue = [5, 1]"] ;
498 -> 500 ;
501 [label="gini = 0.0\nsamples = 5\nvalue = [5, 0]"] ;
500 -> 501 ;
502 [label="gini = 0.0\nsamples = 1\nvalue = [0, 1]"] ;
500 -> 502 ;
503 [label="X[4] <= 0.388\ngini = 0.147\nsamples = 163\nvalue = [150, 13]"] ;
497 -> 503 ;
504 [label="gini = 0.0\nsamples = 28\nvalue = [28, 0]"] ;
503 -> 504 ;
505 [label="X[59] <= 0.5\ngini = 0.174\nsamples = 135\nvalue = [122, 13]"] ;
503 -> 505 ;
506 [label="gini = 0.0\nsamples = 21\nvalue = [21, 0]"] ;
505 -> 506 ;
507 [label="X[23] <= 0.5\ngini = 0.202\nsamples = 114\nvalue = [101, 13]"] ;
505 -> 507 ;
508 [label="X[0] <= 0.555\ngini = 0.301\nsamples = 38\nvalue = [31, 7]"] ;
507 -> 508 ;
509 [label="X[3] <= 0.18\ngini = 0.358\nsamples = 30\nvalue = [23, 7]"] ;
508 -> 509 ;
510 [label="X[0] <= 0.527\ngini = 0.328\nsamples = 29\nvalue = [23, 6]"] ;
509 -> 510 ;
511 [label="X[0] <= 0.432\ngini = 0.278\nsamples = 24\nvalue = [20, 4]"] ;
510 -> 511 ;
512 [label="X[46] <= 0.5\ngini = 0.444\nsamples = 9\nvalue = [6, 3]"] ;
511 -> 512 ;
513 [label="X[41] <= 0.5\ngini = 0.375\nsamples = 8\nvalue = [6, 2]"] ;
512 -> 513 ;
514 [label="X[32] <= 0.5\ngini = 0.245\nsamples = 7\nvalue = [6, 1]"] ;
513 -> 514 ;
515 [label="gini = 0.0\nsamples = 6\nvalue = [6, 0]"] ;
514 -> 515 ;
516 [label="gini = 0.0\nsamples = 1\nvalue = [0, 1]"] ;
514 -> 516 ;
517 [label="gini = 0.0\nsamples = 1\nvalue = [0, 1]"] ;
513 -> 517 ;
518 [label="gini = 0.0\nsamples = 1\nvalue = [0, 1]"] ;
512 -> 518 ;
519 [label="X[35] <= 0.5\ngini = 0.124\nsamples = 15\nvalue = [14, 1]"] ;
511 -> 519 ;
520 [label="gini = 0.0\nsamples = 13\nvalue = [13, 0]"] ;
519 -> 520 ;
521 [label="X[1] <= 0.5\ngini = 0.5\nsamples = 2\nvalue = [1, 1]"] ;
519 -> 521 ;
522 [label="gini = 0.0\nsamples = 1\nvalue = [0, 1]"] ;
521 -> 522 ;
523 [label="gini = 0.0\nsamples = 1\nvalue = [1, 0]"] ;
521 -> 523 ;
524 [label="X[31] <= 0.5\ngini = 0.48\nsamples = 5\nvalue = [3, 2]"] ;
510 -> 524 ;
525 [label="gini = 0.0\nsamples = 2\nvalue = [0, 2]"] ;
524 -> 525 ;
526 [label="gini = 0.0\nsamples = 3\nvalue = [3, 0]"] ;
524 -> 526 ;
527 [label="gini = 0.0\nsamples = 1\nvalue = [0, 1]"] ;
509 -> 527 ;
528 [label="gini = 0.0\nsamples = 8\nvalue = [8, 0]"] ;
508 -> 528 ;
529 [label="X[48] <= 0.5\ngini = 0.145\nsamples = 76\nvalue = [70, 6]"] ;
507 -> 529 ;
530 [label="X[0] <= 0.473\ngini = 0.114\nsamples = 66\nvalue = [62, 4]"] ;
529 -> 530 ;
531 [label="X[37] <= 0.5\ngini = 0.231\nsamples = 30\nvalue = [26, 4]"] ;
530 -> 531 ;
532 [label="X[32] <= 0.5\ngini = 0.105\nsamples = 18\nvalue = [17, 1]"] ;
531 -> 532 ;
533 [label="gini = 0.0\nsamples = 12\nvalue = [12, 0]"] ;
532 -> 533 ;
534 [label="X[40] <= 0.5\ngini = 0.278\nsamples = 6\nvalue = [5, 1]"] ;
532 -> 534 ;
535 [label="gini = 0.0\nsamples = 4\nvalue = [4, 0]"] ;
534 -> 535 ;
536 [label="gini = 0.5\nsamples = 2\nvalue = [1, 1]"] ;
534 -> 536 ;
537 [label="X[32] <= 0.5\ngini = 0.375\nsamples = 12\nvalue = [9, 3]"] ;
531 -> 537 ;
538 [label="X[0] <= 0.418\ngini = 0.32\nsamples = 10\nvalue = [8, 2]"] ;
537 -> 538 ;
539 [label="X[28] <= 0.5\ngini = 0.5\nsamples = 2\nvalue = [1, 1]"] ;
538 -> 539 ;
540 [label="gini = 0.0\nsamples = 1\nvalue = [1, 0]"] ;
539 -> 540 ;
541 [label="gini = 0.0\nsamples = 1\nvalue = [0, 1]"] ;
539 -> 541 ;
542 [label="X[0] <= 0.445\ngini = 0.219\nsamples = 8\nvalue = [7, 1]"] ;
538 -> 542 ;
543 [label="gini = 0.0\nsamples = 3\nvalue = [3, 0]"] ;
542 -> 543 ;
544 [label="X[0] <= 0.459\ngini = 0.32\nsamples = 5\nvalue = [4, 1]"] ;
542 -> 544 ;
545 [label="gini = 0.444\nsamples = 3\nvalue = [2, 1]"] ;
544 -> 545 ;
546 [label="gini = 0.0\nsamples = 2\nvalue = [2, 0]"] ;
544 -> 546 ;
547 [label="X[0] <= 0.438\ngini = 0.5\nsamples = 2\nvalue = [1, 1]"] ;
537 -> 547 ;
548 [label="gini = 0.0\nsamples = 1\nvalue = [1, 0]"] ;
547 -> 548 ;
549 [label="gini = 0.0\nsamples = 1\nvalue = [0, 1]"] ;
547 -> 549 ;
550 [label="gini = 0.0\nsamples = 36\nvalue = [36, 0]"] ;
530 -> 550 ;
551 [label="X[0] <= 0.568\ngini = 0.32\nsamples = 10\nvalue = [8, 2]"] ;
529 -> 551 ;
552 [label="X[0] <= 0.486\ngini = 0.198\nsamples = 9\nvalue = [8, 1]"] ;
551 -> 552 ;
553 [label="gini = 0.0\nsamples = 3\nvalue = [3, 0]"] ;
552 -> 553 ;
554 [label="X[0] <= 0.5\ngini = 0.278\nsamples = 6\nvalue = [5, 1]"] ;
552 -> 554 ;
555 [label="X[32] <= 0.5\ngini = 0.444\nsamples = 3\nvalue = [2, 1]"] ;
554 -> 555 ;
556 [label="gini = 0.5\nsamples = 2\nvalue = [1, 1]"] ;
555 -> 556 ;
557 [label="gini = 0.0\nsamples = 1\nvalue = [1, 0]"] ;
555 -> 557 ;
558 [label="gini = 0.0\nsamples = 3\nvalue = [3, 0]"] ;
554 -> 558 ;
559 [label="gini = 0.0\nsamples = 1\nvalue = [0, 1]"] ;
551 -> 559 ;
560 [label="X[8] <= 0.5\ngini = 0.32\nsamples = 20\nvalue = [16, 4]"] ;
496 -> 560 ;
561 [label="X[5] <= 0.5\ngini = 0.266\nsamples = 19\nvalue = [16, 3]"] ;
560 -> 561 ;
562 [label="X[46] <= 0.5\ngini = 0.198\nsamples = 18\nvalue = [16, 2]"] ;
561 -> 562 ;
563 [label="gini = 0.0\nsamples = 11\nvalue = [11, 0]"] ;
562 -> 563 ;
564 [label="X[32] <= 0.5\ngini = 0.408\nsamples = 7\nvalue = [5, 2]"] ;
562 -> 564 ;
565 [label="X[4] <= 0.26\ngini = 0.278\nsamples = 6\nvalue = [5, 1]"] ;
564 -> 565 ;
566 [label="gini = 0.0\nsamples = 3\nvalue = [3, 0]"] ;
565 -> 566 ;
567 [label="X[4] <= 0.372\ngini = 0.444\nsamples = 3\nvalue = [2, 1]"] ;
565 -> 567 ;
568 [label="gini = 0.0\nsamples = 1\nvalue = [0, 1]"] ;
567 -> 568 ;
569 [label="gini = 0.0\nsamples = 2\nvalue = [2, 0]"] ;
567 -> 569 ;
570 [label="gini = 0.0\nsamples = 1\nvalue = [0, 1]"] ;
564 -> 570 ;
571 [label="gini = 0.0\nsamples = 1\nvalue = [0, 1]"] ;
561 -> 571 ;
572 [label="gini = 0.0\nsamples = 1\nvalue = [0, 1]"] ;
560 -> 572 ;
573 [label="X[19] <= 0.5\ngini = 0.5\nsamples = 2\nvalue = [1, 1]"] ;
489 -> 573 ;
574 [label="gini = 0.0\nsamples = 1\nvalue = [0, 1]"] ;
573 -> 574 ;
575 [label="gini = 0.0\nsamples = 1\nvalue = [1, 0]"] ;
573 -> 575 ;
576 [label="gini = 0.0\nsamples = 1\nvalue = [0, 1]"] ;
488 -> 576 ;
577 [label="X[13] <= 0.5\ngini = 0.008\nsamples = 262\nvalue = [261, 1]"] ;
399 -> 577 ;
578 [label="gini = 0.0\nsamples = 247\nvalue = [247, 0]"] ;
577 -> 578 ;
579 [label="X[9] <= 0.5\ngini = 0.124\nsamples = 15\nvalue = [14, 1]"] ;
577 -> 579 ;
580 [label="gini = 0.0\nsamples = 14\nvalue = [14, 0]"] ;
579 -> 580 ;
581 [label="gini = 0.0\nsamples = 1\nvalue = [0, 1]"] ;
579 -> 581 ;
582 [label="X[28] <= 0.5\ngini = 0.408\nsamples = 7\nvalue = [5, 2]"] ;
398 -> 582 ;
583 [label="gini = 0.0\nsamples = 4\nvalue = [4, 0]"] ;
582 -> 583 ;
584 [label="X[60] <= 0.5\ngini = 0.444\nsamples = 3\nvalue = [1, 2]"] ;
582 -> 584 ;
585 [label="gini = 0.0\nsamples = 2\nvalue = [0, 2]"] ;
584 -> 585 ;
586 [label="gini = 0.0\nsamples = 1\nvalue = [1, 0]"] ;
584 -> 586 ;
587 [label="X[19] <= 0.5\ngini = 0.444\nsamples = 3\nvalue = [2, 1]"] ;
195 -> 587 ;
588 [label="X[4] <= 0.321\ngini = 0.5\nsamples = 2\nvalue = [1, 1]"] ;
587 -> 588 ;
589 [label="gini = 0.0\nsamples = 1\nvalue = [1, 0]"] ;
588 -> 589 ;
590 [label="gini = 0.0\nsamples = 1\nvalue = [0, 1]"] ;
588 -> 590 ;
591 [label="gini = 0.0\nsamples = 1\nvalue = [1, 0]"] ;
587 -> 591 ;
592 [label="X[7] <= 0.5\ngini = 0.153\nsamples = 84\nvalue = [77, 7]"] ;
194 -> 592 ;
593 [label="X[0] <= 0.281\ngini = 0.233\nsamples = 52\nvalue = [45, 7]"] ;
592 -> 593 ;
594 [label="gini = 0.0\nsamples = 18\nvalue = [18, 0]"] ;
593 -> 594 ;
595 [label="X[0] <= 0.349\ngini = 0.327\nsamples = 34\nvalue = [27, 7]"] ;
593 -> 595 ;
596 [label="X[10] <= 0.5\ngini = 0.473\nsamples = 13\nvalue = [8, 5]"] ;
595 -> 596 ;
597 [label="X[61] <= 0.5\ngini = 0.346\nsamples = 9\nvalue = [7, 2]"] ;
596 -> 597 ;
598 [label="X[53] <= 0.5\ngini = 0.5\nsamples = 4\nvalue = [2, 2]"] ;
597 -> 598 ;
599 [label="gini = 0.0\nsamples = 1\nvalue = [0, 1]"] ;
598 -> 599 ;
600 [label="X[23] <= 0.5\ngini = 0.444\nsamples = 3\nvalue = [2, 1]"] ;
598 -> 600 ;
601 [label="gini = 0.0\nsamples = 2\nvalue = [2, 0]"] ;
600 -> 601 ;
602 [label="gini = 0.0\nsamples = 1\nvalue = [0, 1]"] ;
600 -> 602 ;
603 [label="gini = 0.0\nsamples = 5\nvalue = [5, 0]"] ;
597 -> 603 ;
604 [label="X[60] <= 0.5\ngini = 0.375\nsamples = 4\nvalue = [1, 3]"] ;
596 -> 604 ;
605 [label="gini = 0.0\nsamples = 2\nvalue = [0, 2]"] ;
604 -> 605 ;
606 [label="X[59] <= 0.5\ngini = 0.5\nsamples = 2\nvalue = [1, 1]"] ;
604 -> 606 ;
607 [label="gini = 0.0\nsamples = 1\nvalue = [0, 1]"] ;
606 -> 607 ;
608 [label="gini = 0.0\nsamples = 1\nvalue = [1, 0]"] ;
606 -> 608 ;
609 [label="X[28] <= 0.5\ngini = 0.172\nsamples = 21\nvalue = [19, 2]"] ;
595 -> 609 ;
610 [label="X[6] <= 0.5\ngini = 0.32\nsamples = 10\nvalue = [8, 2]"] ;
609 -> 610 ;
611 [label="gini = 0.0\nsamples = 4\nvalue = [4, 0]"] ;
610 -> 611 ;
612 [label="X[59] <= 0.5\ngini = 0.444\nsamples = 6\nvalue = [4, 2]"] ;
610 -> 612 ;
613 [label="gini = 0.0\nsamples = 3\nvalue = [3, 0]"] ;
612 -> 613 ;
614 [label="X[0] <= 0.637\ngini = 0.444\nsamples = 3\nvalue = [1, 2]"] ;
612 -> 614 ;
615 [label="gini = 0.0\nsamples = 2\nvalue = [0, 2]"] ;
614 -> 615 ;
616 [label="gini = 0.0\nsamples = 1\nvalue = [1, 0]"] ;
614 -> 616 ;
617 [label="gini = 0.0\nsamples = 11\nvalue = [11, 0]"] ;
609 -> 617 ;
618 [label="gini = 0.0\nsamples = 32\nvalue = [32, 0]"] ;
592 -> 618 ;
619 [label="X[82] <= 0.5\ngini = 0.127\nsamples = 395\nvalue = [368, 27]"] ;
193 -> 619 ;
620 [label="X[7] <= 0.5\ngini = 0.123\nsamples = 394\nvalue = [368, 26]"] ;
619 -> 620 ;
621 [label="X[60] <= 0.5\ngini = 0.06\nsamples = 129\nvalue = [125, 4]"] ;
620 -> 621 ;
622 [label="X[0] <= 0.459\ngini = 0.136\nsamples = 41\nvalue = [38, 3]"] ;
621 -> 622 ;
623 [label="gini = 0.0\nsamples = 22\nvalue = [22, 0]"] ;
622 -> 623 ;
624 [label="X[4] <= 0.337\ngini = 0.266\nsamples = 19\nvalue = [16, 3]"] ;
622 -> 624 ;
625 [label="gini = 0.0\nsamples = 10\nvalue = [10, 0]"] ;
624 -> 625 ;
626 [label="X[20] <= 0.5\ngini = 0.444\nsamples = 9\nvalue = [6, 3]"] ;
624 -> 626 ;
627 [label="X[0] <= 0.562\ngini = 0.375\nsamples = 8\nvalue = [6, 2]"] ;
626 -> 627 ;
628 [label="X[34] <= 0.5\ngini = 0.48\nsamples = 5\nvalue = [3, 2]"] ;
627 -> 628 ;
629 [label="X[4] <= 0.372\ngini = 0.375\nsamples = 4\nvalue = [3, 1]"] ;
628 -> 629 ;
630 [label="gini = 0.0\nsamples = 1\nvalue = [0, 1]"] ;
629 -> 630 ;
631 [label="gini = 0.0\nsamples = 3\nvalue = [3, 0]"] ;
629 -> 631 ;
632 [label="gini = 0.0\nsamples = 1\nvalue = [0, 1]"] ;
628 -> 632 ;
633 [label="gini = 0.0\nsamples = 3\nvalue = [3, 0]"] ;
627 -> 633 ;
634 [label="gini = 0.0\nsamples = 1\nvalue = [0, 1]"] ;
626 -> 634 ;
635 [label="X[0] <= 0.267\ngini = 0.022\nsamples = 88\nvalue = [87, 1]"] ;
621 -> 635 ;
636 [label="X[5] <= 0.5\ngini = 0.198\nsamples = 9\nvalue = [8, 1]"] ;
635 -> 636 ;
637 [label="gini = 0.0\nsamples = 7\nvalue = [7, 0]"] ;
636 -> 637 ;
638 [label="X[57] <= 0.5\ngini = 0.5\nsamples = 2\nvalue = [1, 1]"] ;
636 -> 638 ;
639 [label="gini = 0.0\nsamples = 1\nvalue = [1, 0]"] ;
638 -> 639 ;
640 [label="gini = 0.0\nsamples = 1\nvalue = [0, 1]"] ;
638 -> 640 ;
641 [label="gini = 0.0\nsamples = 79\nvalue = [79, 0]"] ;
635 -> 641 ;
642 [label="X[34] <= 0.5\ngini = 0.152\nsamples = 265\nvalue = [243, 22]"] ;
620 -> 642 ;
643 [label="X[3] <= 0.352\ngini = 0.128\nsamples = 232\nvalue = [216, 16]"] ;
642 -> 643 ;
644 [label="X[0] <= 0.418\ngini = 0.123\nsamples = 228\nvalue = [213, 15]"] ;
643 -> 644 ;
645 [label="X[28] <= 0.5\ngini = 0.157\nsamples = 151\nvalue = [138, 13]"] ;
644 -> 645 ;
646 [label="X[0] <= 0.24\ngini = 0.038\nsamples = 52\nvalue = [51, 1]"] ;
645 -> 646 ;
647 [label="X[61] <= 0.5\ngini = 0.245\nsamples = 7\nvalue = [6, 1]"] ;
646 -> 647 ;
648 [label="gini = 0.0\nsamples = 6\nvalue = [6, 0]"] ;
647 -> 648 ;
649 [label="gini = 0.0\nsamples = 1\nvalue = [0, 1]"] ;
647 -> 649 ;
650 [label="gini = 0.0\nsamples = 45\nvalue = [45, 0]"] ;
646 -> 650 ;
651 [label="X[0] <= 0.308\ngini = 0.213\nsamples = 99\nvalue = [87, 12]"] ;
645 -> 651 ;
652 [label="X[0] <= 0.253\ngini = 0.124\nsamples = 45\nvalue = [42, 3]"] ;
651 -> 652 ;
653 [label="X[0] <= 0.24\ngini = 0.278\nsamples = 12\nvalue = [10, 2]"] ;
652 -> 653 ;
654 [label="gini = 0.0\nsamples = 3\nvalue = [3, 0]"] ;
653 -> 654 ;
655 [label="X[61] <= 0.5\ngini = 0.346\nsamples = 9\nvalue = [7, 2]"] ;
653 -> 655 ;
656 [label="X[4] <= 0.296\ngini = 0.408\nsamples = 7\nvalue = [5, 2]"] ;
655 -> 656 ;
657 [label="gini = 0.0\nsamples = 1\nvalue = [1, 0]"] ;
656 -> 657 ;
658 [label="X[23] <= 0.5\ngini = 0.444\nsamples = 6\nvalue = [4, 2]"] ;
656 -> 658 ;
659 [label="X[50] <= 0.5\ngini = 0.375\nsamples = 4\nvalue = [3, 1]"] ;
658 -> 659 ;
660 [label="gini = 0.0\nsamples = 1\nvalue = [1, 0]"] ;
659 -> 660 ;
661 [label="gini = 0.444\nsamples = 3\nvalue = [2, 1]"] ;
659 -> 661 ;
662 [label="gini = 0.5\nsamples = 2\nvalue = [1, 1]"] ;
658 -> 662 ;
663 [label="gini = 0.0\nsamples = 2\nvalue = [2, 0]"] ;
655 -> 663 ;
664 [label="X[50] <= 0.5\ngini = 0.059\nsamples = 33\nvalue = [32, 1]"] ;
652 -> 664 ;
665 [label="gini = 0.0\nsamples = 23\nvalue = [23, 0]"] ;
664 -> 665 ;
666 [label="X[27] <= 0.5\ngini = 0.18\nsamples = 10\nvalue = [9, 1]"] ;
664 -> 666 ;
667 [label="gini = 0.0\nsamples = 5\nvalue = [5, 0]"] ;
666 -> 667 ;
668 [label="X[0] <= 0.281\ngini = 0.32\nsamples = 5\nvalue = [4, 1]"] ;
666 -> 668 ;
669 [label="X[0] <= 0.267\ngini = 0.5\nsamples = 2\nvalue = [1, 1]"] ;
668 -> 669 ;
670 [label="gini = 0.0\nsamples = 1\nvalue = [1, 0]"] ;
669 -> 670 ;
671 [label="gini = 0.0\nsamples = 1\nvalue = [0, 1]"] ;
669 -> 671 ;
672 [label="gini = 0.0\nsamples = 3\nvalue = [3, 0]"] ;
668 -> 672 ;
673 [label="X[4] <= 0.388\ngini = 0.278\nsamples = 54\nvalue = [45, 9]"] ;
651 -> 673 ;
674 [label="X[23] <= 0.5\ngini = 0.5\nsamples = 4\nvalue = [2, 2]"] ;
673 -> 674 ;
675 [label="gini = 0.0\nsamples = 2\nvalue = [2, 0]"] ;
674 -> 675 ;
676 [label="gini = 0.0\nsamples = 2\nvalue = [0, 2]"] ;
674 -> 676 ;
677 [label="X[0] <= 0.322\ngini = 0.241\nsamples = 50\nvalue = [43, 7]"] ;
673 -> 677 ;
678 [label="X[19] <= 0.5\ngini = 0.42\nsamples = 10\nvalue = [7, 3]"] ;
677 -> 678 ;
679 [label="X[1] <= 0.567\ngini = 0.245\nsamples = 7\nvalue = [6, 1]"] ;
678 -> 679 ;
680 [label="gini = 0.0\nsamples = 2\nvalue = [2, 0]"] ;
679 -> 680 ;
681 [label="X[61] <= 0.5\ngini = 0.32\nsamples = 5\nvalue = [4, 1]"] ;
679 -> 681 ;
682 [label="gini = 0.444\nsamples = 3\nvalue = [2, 1]"] ;
681 -> 682 ;
683 [label="gini = 0.0\nsamples = 2\nvalue = [2, 0]"] ;
681 -> 683 ;
684 [label="X[60] <= 0.5\ngini = 0.444\nsamples = 3\nvalue = [1, 2]"] ;
678 -> 684 ;
685 [label="gini = 0.0\nsamples = 1\nvalue = [0, 1]"] ;
684 -> 685 ;
686 [label="gini = 0.5\nsamples = 2\nvalue = [1, 1]"] ;
684 -> 686 ;
687 [label="X[27] <= 0.5\ngini = 0.18\nsamples = 40\nvalue = [36, 4]"] ;
677 -> 687 ;
688 [label="X[0] <= 0.404\ngini = 0.252\nsamples = 27\nvalue = [23, 4]"] ;
687 -> 688 ;
689 [label="X[0] <= 0.39\ngini = 0.219\nsamples = 24\nvalue = [21, 3]"] ;
688 -> 689 ;
690 [label="X[0] <= 0.377\ngini = 0.278\nsamples = 18\nvalue = [15, 3]"] ;
689 -> 690 ;
691 [label="X[1] <= 0.6\ngini = 0.219\nsamples = 16\nvalue = [14, 2]"] ;
690 -> 691 ;
692 [label="X[0] <= 0.336\ngini = 0.278\nsamples = 12\nvalue = [10, 2]"] ;
691 -> 692 ;
693 [label="gini = 0.0\nsamples = 3\nvalue = [3, 0]"] ;
692 -> 693 ;
694 [label="X[0] <= 0.349\ngini = 0.346\nsamples = 9\nvalue = [7, 2]"] ;
692 -> 694 ;
695 [label="X[53] <= 0.5\ngini = 0.444\nsamples = 3\nvalue = [2, 1]"] ;
694 -> 695 ;
696 [label="gini = 0.5\nsamples = 2\nvalue = [1, 1]"] ;
695 -> 696 ;
697 [label="gini = 0.0\nsamples = 1\nvalue = [1, 0]"] ;
695 -> 697 ;
698 [label="X[50] <= 0.5\ngini = 0.278\nsamples = 6\nvalue = [5, 1]"] ;
694 -> 698 ;
699 [label="gini = 0.375\nsamples = 4\nvalue = [3, 1]"] ;
698 -> 699 ;
700 [label="gini = 0.0\nsamples = 2\nvalue = [2, 0]"] ;
698 -> 700 ;
701 [label="gini = 0.0\nsamples = 4\nvalue = [4, 0]"] ;
691 -> 701 ;
702 [label="X[50] <= 0.5\ngini = 0.5\nsamples = 2\nvalue = [1, 1]"] ;
690 -> 702 ;
703 [label="gini = 0.0\nsamples = 1\nvalue = [1, 0]"] ;
702 -> 703 ;
704 [label="gini = 0.0\nsamples = 1\nvalue = [0, 1]"] ;
702 -> 704 ;
705 [label="gini = 0.0\nsamples = 6\nvalue = [6, 0]"] ;
689 -> 705 ;
706 [label="X[57] <= 0.5\ngini = 0.444\nsamples = 3\nvalue = [2, 1]"] ;
688 -> 706 ;
707 [label="gini = 0.0\nsamples = 1\nvalue = [1, 0]"] ;
706 -> 707 ;
708 [label="gini = 0.5\nsamples = 2\nvalue = [1, 1]"] ;
706 -> 708 ;
709 [label="gini = 0.0\nsamples = 13\nvalue = [13, 0]"] ;
687 -> 709 ;
710 [label="X[60] <= 0.5\ngini = 0.051\nsamples = 77\nvalue = [75, 2]"] ;
644 -> 710 ;
711 [label="X[32] <= 0.5\ngini = 0.231\nsamples = 15\nvalue = [13, 2]"] ;
710 -> 711 ;
712 [label="gini = 0.0\nsamples = 8\nvalue = [8, 0]"] ;
711 -> 712 ;
713 [label="X[0] <= 0.5\ngini = 0.408\nsamples = 7\nvalue = [5, 2]"] ;
711 -> 713 ;
714 [label="gini = 0.0\nsamples = 3\nvalue = [3, 0]"] ;
713 -> 714 ;
715 [label="X[27] <= 0.5\ngini = 0.5\nsamples = 4\nvalue = [2, 2]"] ;
713 -> 715 ;
716 [label="gini = 0.0\nsamples = 2\nvalue = [2, 0]"] ;
715 -> 716 ;
717 [label="gini = 0.0\nsamples = 2\nvalue = [0, 2]"] ;
715 -> 717 ;
718 [label="gini = 0.0\nsamples = 62\nvalue = [62, 0]"] ;
710 -> 718 ;
719 [label="X[3] <= 0.362\ngini = 0.375\nsamples = 4\nvalue = [3, 1]"] ;
643 -> 719 ;
720 [label="gini = 0.0\nsamples = 1\nvalue = [0, 1]"] ;
719 -> 720 ;
721 [label="gini = 0.0\nsamples = 3\nvalue = [3, 0]"] ;
719 -> 721 ;
722 [label="X[0] <= 0.678\ngini = 0.298\nsamples = 33\nvalue = [27, 6]"] ;
642 -> 722 ;
723 [label="X[1] <= 0.567\ngini = 0.245\nsamples = 28\nvalue = [24, 4]"] ;
722 -> 723 ;
724 [label="gini = 0.0\nsamples = 10\nvalue = [10, 0]"] ;
723 -> 724 ;
725 [label="X[0] <= 0.329\ngini = 0.346\nsamples = 18\nvalue = [14, 4]"] ;
723 -> 725 ;
726 [label="gini = 0.0\nsamples = 1\nvalue = [0, 1]"] ;
725 -> 726 ;
727 [label="X[1] <= 0.7\ngini = 0.291\nsamples = 17\nvalue = [14, 3]"] ;
725 -> 727 ;
728 [label="X[56] <= 0.5\ngini = 0.231\nsamples = 15\nvalue = [13, 2]"] ;
727 -> 728 ;
729 [label="X[0] <= 0.445\ngini = 0.142\nsamples = 13\nvalue = [12, 1]"] ;
728 -> 729 ;
730 [label="X[50] <= 0.5\ngini = 0.444\nsamples = 3\nvalue = [2, 1]"] ;
729 -> 730 ;
731 [label="gini = 0.0\nsamples = 2\nvalue = [2, 0]"] ;
730 -> 731 ;
732 [label="gini = 0.0\nsamples = 1\nvalue = [0, 1]"] ;
730 -> 732 ;
733 [label="gini = 0.0\nsamples = 10\nvalue = [10, 0]"] ;
729 -> 733 ;
734 [label="X[20] <= 0.5\ngini = 0.5\nsamples = 2\nvalue = [1, 1]"] ;
728 -> 734 ;
735 [label="gini = 0.0\nsamples = 1\nvalue = [1, 0]"] ;
734 -> 735 ;
736 [label="gini = 0.0\nsamples = 1\nvalue = [0, 1]"] ;
734 -> 736 ;
737 [label="X[53] <= 0.5\ngini = 0.5\nsamples = 2\nvalue = [1, 1]"] ;
727 -> 737 ;
738 [label="gini = 0.0\nsamples = 1\nvalue = [0, 1]"] ;
737 -> 738 ;
739 [label="gini = 0.0\nsamples = 1\nvalue = [1, 0]"] ;
737 -> 739 ;
740 [label="X[23] <= 0.5\ngini = 0.48\nsamples = 5\nvalue = [3, 2]"] ;
722 -> 740 ;
741 [label="gini = 0.0\nsamples = 2\nvalue = [2, 0]"] ;
740 -> 741 ;
742 [label="X[60] <= 0.5\ngini = 0.444\nsamples = 3\nvalue = [1, 2]"] ;
740 -> 742 ;
743 [label="gini = 0.0\nsamples = 1\nvalue = [0, 1]"] ;
742 -> 743 ;
744 [label="X[4] <= 0.219\ngini = 0.5\nsamples = 2\nvalue = [1, 1]"] ;
742 -> 744 ;
745 [label="gini = 0.0\nsamples = 1\nvalue = [0, 1]"] ;
744 -> 745 ;
746 [label="gini = 0.0\nsamples = 1\nvalue = [1, 0]"] ;
744 -> 746 ;
747 [label="gini = 0.0\nsamples = 1\nvalue = [0, 1]"] ;
619 -> 747 ;
748 [label="X[2] <= 0.048\ngini = 0.334\nsamples = 33\nvalue = [26, 7]"] ;
192 -> 748 ;
749 [label="gini = 0.0\nsamples = 5\nvalue = [0, 5]"] ;
748 -> 749 ;
750 [label="X[1] <= 0.3\ngini = 0.133\nsamples = 28\nvalue = [26, 2]"] ;
748 -> 750 ;
751 [label="X[2] <= 0.055\ngini = 0.5\nsamples = 2\nvalue = [1, 1]"] ;
750 -> 751 ;
752 [label="gini = 0.0\nsamples = 1\nvalue = [1, 0]"] ;
751 -> 752 ;
753 [label="gini = 0.0\nsamples = 1\nvalue = [0, 1]"] ;
751 -> 753 ;
754 [label="X[47] <= 0.5\ngini = 0.074\nsamples = 26\nvalue = [25, 1]"] ;
750 -> 754 ;
755 [label="gini = 0.0\nsamples = 23\nvalue = [23, 0]"] ;
754 -> 755 ;
756 [label="X[0] <= 0.438\ngini = 0.444\nsamples = 3\nvalue = [2, 1]"] ;
754 -> 756 ;
757 [label="gini = 0.0\nsamples = 2\nvalue = [2, 0]"] ;
756 -> 757 ;
758 [label="gini = 0.0\nsamples = 1\nvalue = [0, 1]"] ;
756 -> 758 ;
759 [label="X[56] <= 0.5\ngini = 0.196\nsamples = 263\nvalue = [234, 29]"] ;
191 -> 759 ;
760 [label="X[4] <= 0.362\ngini = 0.177\nsamples = 255\nvalue = [230, 25]"] ;
759 -> 760 ;
761 [label="X[3] <= 0.18\ngini = 0.053\nsamples = 73\nvalue = [71, 2]"] ;
760 -> 761 ;
762 [label="X[4] <= 0.128\ngini = 0.027\nsamples = 72\nvalue = [71, 1]"] ;
761 -> 762 ;
763 [label="X[4] <= 0.107\ngini = 0.278\nsamples = 6\nvalue = [5, 1]"] ;
762 -> 763 ;
764 [label="gini = 0.0\nsamples = 5\nvalue = [5, 0]"] ;
763 -> 764 ;
765 [label="gini = 0.0\nsamples = 1\nvalue = [0, 1]"] ;
763 -> 765 ;
766 [label="gini = 0.0\nsamples = 66\nvalue = [66, 0]"] ;
762 -> 766 ;
767 [label="gini = 0.0\nsamples = 1\nvalue = [0, 1]"] ;
761 -> 767 ;
768 [label="X[1] <= 0.433\ngini = 0.221\nsamples = 182\nvalue = [159, 23]"] ;
760 -> 768 ;
769 [label="gini = 0.0\nsamples = 1\nvalue = [0, 1]"] ;
768 -> 769 ;
770 [label="X[0] <= 0.568\ngini = 0.214\nsamples = 181\nvalue = [159, 22]"] ;
768 -> 770 ;
771 [label="X[10] <= 0.5\ngini = 0.192\nsamples = 167\nvalue = [149, 18]"] ;
770 -> 771 ;
772 [label="X[4] <= 0.372\ngini = 0.217\nsamples = 145\nvalue = [127, 18]"] ;
771 -> 772 ;
773 [label="gini = 0.0\nsamples = 1\nvalue = [0, 1]"] ;
772 -> 773 ;
774 [label="X[2] <= 0.047\ngini = 0.208\nsamples = 144\nvalue = [127, 17]"] ;
772 -> 774 ;
775 [label="X[0] <= 0.479\ngini = 0.2\nsamples = 142\nvalue = [126, 16]"] ;
774 -> 775 ;
776 [label="X[5] <= 0.5\ngini = 0.222\nsamples = 126\nvalue = [110, 16]"] ;
775 -> 776 ;
777 [label="X[33] <= 0.5\ngini = 0.208\nsamples = 119\nvalue = [105, 14]"] ;
776 -> 777 ;
778 [label="X[72] <= 0.5\ngini = 0.237\nsamples = 102\nvalue = [88, 14]"] ;
777 -> 778 ;
779 [label="X[27] <= 0.5\ngini = 0.226\nsamples = 100\nvalue = [87, 13]"] ;
778 -> 779 ;
780 [label="X[3] <= 0.338\ngini = 0.259\nsamples = 72\nvalue = [61, 11]"] ;
779 -> 780 ;
781 [label="X[31] <= 0.5\ngini = 0.245\nsamples = 70\nvalue = [60, 10]"] ;
780 -> 781 ;
782 [label="X[59] <= 0.5\ngini = 0.23\nsamples = 68\nvalue = [59, 9]"] ;
781 -> 782 ;
783 [label="gini = 0.0\nsamples = 9\nvalue = [9, 0]"] ;
782 -> 783 ;
784 [label="X[52] <= 0.5\ngini = 0.259\nsamples = 59\nvalue = [50, 9]"] ;
782 -> 784 ;
785 [label="X[0] <= 0.445\ngini = 0.241\nsamples = 57\nvalue = [49, 8]"] ;
784 -> 785 ;
786 [label="X[60] <= 0.5\ngini = 0.211\nsamples = 50\nvalue = [44, 6]"] ;
785 -> 786 ;
787 [label="X[34] <= 0.5\ngini = 0.36\nsamples = 17\nvalue = [13, 4]"] ;
786 -> 787 ;
788 [label="X[0] <= 0.253\ngini = 0.305\nsamples = 16\nvalue = [13, 3]"] ;
787 -> 788 ;
789 [label="gini = 0.0\nsamples = 3\nvalue = [3, 0]"] ;
788 -> 789 ;
790 [label="X[0] <= 0.336\ngini = 0.355\nsamples = 13\nvalue = [10, 3]"] ;
788 -> 790 ;
791 [label="X[32] <= 0.5\ngini = 0.397\nsamples = 11\nvalue = [8, 3]"] ;
790 -> 791 ;
792 [label="X[53] <= 0.5\ngini = 0.5\nsamples = 2\nvalue = [1, 1]"] ;
791 -> 792 ;
793 [label="gini = 0.0\nsamples = 1\nvalue = [0, 1]"] ;
792 -> 793 ;
794 [label="gini = 0.0\nsamples = 1\nvalue = [1, 0]"] ;
792 -> 794 ;
795 [label="X[0] <= 0.301\ngini = 0.346\nsamples = 9\nvalue = [7, 2]"] ;
791 -> 795 ;
796 [label="X[23] <= 0.5\ngini = 0.245\nsamples = 7\nvalue = [6, 1]"] ;
795 -> 796 ;
797 [label="gini = 0.0\nsamples = 3\nvalue = [3, 0]"] ;
796 -> 797 ;
798 [label="X[0] <= 0.274\ngini = 0.375\nsamples = 4\nvalue = [3, 1]"] ;
796 -> 798 ;
799 [label="gini = 0.0\nsamples = 1\nvalue = [1, 0]"] ;
798 -> 799 ;
800 [label="gini = 0.444\nsamples = 3\nvalue = [2, 1]"] ;
798 -> 800 ;
801 [label="X[6] <= 0.5\ngini = 0.5\nsamples = 2\nvalue = [1, 1]"] ;
795 -> 801 ;
802 [label="gini = 0.0\nsamples = 1\nvalue = [1, 0]"] ;
801 -> 802 ;
803 [label="gini = 0.0\nsamples = 1\nvalue = [0, 1]"] ;
801 -> 803 ;
804 [label="gini = 0.0\nsamples = 2\nvalue = [2, 0]"] ;
790 -> 804 ;
805 [label="gini = 0.0\nsamples = 1\nvalue = [0, 1]"] ;
787 -> 805 ;
806 [label="X[20] <= 0.5\ngini = 0.114\nsamples = 33\nvalue = [31, 2]"] ;
786 -> 806 ;
807 [label="gini = 0.0\nsamples = 17\nvalue = [17, 0]"] ;
806 -> 807 ;
808 [label="X[0] <= 0.322\ngini = 0.219\nsamples = 16\nvalue = [14, 2]"] ;
806 -> 808 ;
809 [label="X[0] <= 0.301\ngini = 0.346\nsamples = 9\nvalue = [7, 2]"] ;
808 -> 809 ;
810 [label="X[0] <= 0.253\ngini = 0.219\nsamples = 8\nvalue = [7, 1]"] ;
809 -> 810 ;
811 [label="X[0] <= 0.24\ngini = 0.444\nsamples = 3\nvalue = [2, 1]"] ;
810 -> 811 ;
812 [label="gini = 0.0\nsamples = 1\nvalue = [1, 0]"] ;
811 -> 812 ;
813 [label="gini = 0.5\nsamples = 2\nvalue = [1, 1]"] ;
811 -> 813 ;
814 [label="gini = 0.0\nsamples = 5\nvalue = [5, 0]"] ;
810 -> 814 ;
815 [label="gini = 0.0\nsamples = 1\nvalue = [0, 1]"] ;
809 -> 815 ;
816 [label="gini = 0.0\nsamples = 7\nvalue = [7, 0]"] ;
808 -> 816 ;
817 [label="X[20] <= 0.5\ngini = 0.408\nsamples = 7\nvalue = [5, 2]"] ;
785 -> 817 ;
818 [label="X[50] <= 0.5\ngini = 0.278\nsamples = 6\nvalue = [5, 1]"] ;
817 -> 818 ;
819 [label="X[60] <= 0.5\ngini = 0.444\nsamples = 3\nvalue = [2, 1]"] ;
818 -> 819 ;
820 [label="gini = 0.0\nsamples = 1\nvalue = [1, 0]"] ;
819 -> 820 ;
821 [label="X[28] <= 0.5\ngini = 0.5\nsamples = 2\nvalue = [1, 1]"] ;
819 -> 821 ;
822 [label="gini = 0.0\nsamples = 1\nvalue = [1, 0]"] ;
821 -> 822 ;
823 [label="gini = 0.0\nsamples = 1\nvalue = [0, 1]"] ;
821 -> 823 ;
824 [label="gini = 0.0\nsamples = 3\nvalue = [3, 0]"] ;
818 -> 824 ;
825 [label="gini = 0.0\nsamples = 1\nvalue = [0, 1]"] ;
817 -> 825 ;
826 [label="X[60] <= 0.5\ngini = 0.5\nsamples = 2\nvalue = [1, 1]"] ;
784 -> 826 ;
827 [label="gini = 0.0\nsamples = 1\nvalue = [1, 0]"] ;
826 -> 827 ;
828 [label="gini = 0.0\nsamples = 1\nvalue = [0, 1]"] ;
826 -> 828 ;
829 [label="X[0] <= 0.342\ngini = 0.5\nsamples = 2\nvalue = [1, 1]"] ;
781 -> 829 ;
830 [label="gini = 0.0\nsamples = 1\nvalue = [0, 1]"] ;
829 -> 830 ;
831 [label="gini = 0.0\nsamples = 1\nvalue = [1, 0]"] ;
829 -> 831 ;
832 [label="X[32] <= 0.5\ngini = 0.5\nsamples = 2\nvalue = [1, 1]"] ;
780 -> 832 ;
833 [label="gini = 0.0\nsamples = 1\nvalue = [1, 0]"] ;
832 -> 833 ;
834 [label="gini = 0.0\nsamples = 1\nvalue = [0, 1]"] ;
832 -> 834 ;
835 [label="X[0] <= 0.377\ngini = 0.133\nsamples = 28\nvalue = [26, 2]"] ;
779 -> 835 ;
836 [label="gini = 0.0\nsamples = 19\nvalue = [19, 0]"] ;
835 -> 836 ;
837 [label="X[59] <= 0.5\ngini = 0.346\nsamples = 9\nvalue = [7, 2]"] ;
835 -> 837 ;
838 [label="gini = 0.0\nsamples = 1\nvalue = [0, 1]"] ;
837 -> 838 ;
839 [label="X[60] <= 0.5\ngini = 0.219\nsamples = 8\nvalue = [7, 1]"] ;
837 -> 839 ;
840 [label="X[0] <= 0.438\ngini = 0.444\nsamples = 3\nvalue = [2, 1]"] ;
839 -> 840 ;
841 [label="gini = 0.0\nsamples = 1\nvalue = [0, 1]"] ;
840 -> 841 ;
842 [label="gini = 0.0\nsamples = 2\nvalue = [2, 0]"] ;
840 -> 842 ;
843 [label="gini = 0.0\nsamples = 5\nvalue = [5, 0]"] ;
839 -> 843 ;
844 [label="X[61] <= 0.5\ngini = 0.5\nsamples = 2\nvalue = [1, 1]"] ;
778 -> 844 ;
845 [label="gini = 0.0\nsamples = 1\nvalue = [1, 0]"] ;
844 -> 845 ;
846 [label="gini = 0.0\nsamples = 1\nvalue = [0, 1]"] ;
844 -> 846 ;
847 [label="gini = 0.0\nsamples = 17\nvalue = [17, 0]"] ;
777 -> 847 ;
848 [label="X[28] <= 0.5\ngini = 0.408\nsamples = 7\nvalue = [5, 2]"] ;
776 -> 848 ;
849 [label="gini = 0.0\nsamples = 2\nvalue = [0, 2]"] ;
848 -> 849 ;
850 [label="gini = 0.0\nsamples = 5\nvalue = [5, 0]"] ;
848 -> 850 ;
851 [label="gini = 0.0\nsamples = 16\nvalue = [16, 0]"] ;
775 -> 851 ;
852 [label="X[57] <= 0.5\ngini = 0.5\nsamples = 2\nvalue = [1, 1]"] ;
774 -> 852 ;
853 [label="gini = 0.0\nsamples = 1\nvalue = [1, 0]"] ;
852 -> 853 ;
854 [label="gini = 0.0\nsamples = 1\nvalue = [0, 1]"] ;
852 -> 854 ;
855 [label="gini = 0.0\nsamples = 22\nvalue = [22, 0]"] ;
771 -> 855 ;
856 [label="X[32] <= 0.5\ngini = 0.408\nsamples = 14\nvalue = [10, 4]"] ;
770 -> 856 ;
857 [label="X[1] <= 0.633\ngini = 0.298\nsamples = 11\nvalue = [9, 2]"] ;
856 -> 857 ;
858 [label="gini = 0.0\nsamples = 7\nvalue = [7, 0]"] ;
857 -> 858 ;
859 [label="X[7] <= 0.5\ngini = 0.5\nsamples = 4\nvalue = [2, 2]"] ;
857 -> 859 ;
860 [label="gini = 0.0\nsamples = 2\nvalue = [0, 2]"] ;
859 -> 860 ;
861 [label="gini = 0.0\nsamples = 2\nvalue = [2, 0]"] ;
859 -> 861 ;
862 [label="X[59] <= 0.5\ngini = 0.444\nsamples = 3\nvalue = [1, 2]"] ;
856 -> 862 ;
863 [label="gini = 0.0\nsamples = 1\nvalue = [1, 0]"] ;
862 -> 863 ;
864 [label="gini = 0.0\nsamples = 2\nvalue = [0, 2]"] ;
862 -> 864 ;
865 [label="X[50] <= 0.5\ngini = 0.5\nsamples = 8\nvalue = [4, 4]"] ;
759 -> 865 ;
866 [label="X[19] <= 0.5\ngini = 0.32\nsamples = 5\nvalue = [4, 1]"] ;
865 -> 866 ;
867 [label="gini = 0.0\nsamples = 4\nvalue = [4, 0]"] ;
866 -> 867 ;
868 [label="gini = 0.0\nsamples = 1\nvalue = [0, 1]"] ;
866 -> 868 ;
869 [label="gini = 0.0\nsamples = 3\nvalue = [0, 3]"] ;
865 -> 869 ;
870 [label="X[0] <= 0.158\ngini = 0.118\nsamples = 2772\nvalue = [2597, 175]"] ;
4 -> 870 ;
871 [label="X[38] <= 0.5\ngini = 0.037\nsamples = 855\nvalue = [839, 16]"] ;
870 -> 871 ;
872 [label="X[93] <= 0.5\ngini = 0.023\nsamples = 783\nvalue = [774, 9]"] ;
871 -> 872 ;
873 [label="X[63] <= 0.5\ngini = 0.02\nsamples = 781\nvalue = [773, 8]"] ;
872 -> 873 ;
874 [label="X[56] <= 0.5\ngini = 0.018\nsamples = 777\nvalue = [770, 7]"] ;
873 -> 874 ;
875 [label="X[6] <= 0.5\ngini = 0.013\nsamples = 760\nvalue = [755, 5]"] ;
874 -> 875 ;
876 [label="X[17] <= 0.5\ngini = 0.008\nsamples = 735\nvalue = [732, 3]"] ;
875 -> 876 ;
877 [label="X[0] <= 0.13\ngini = 0.006\nsamples = 721\nvalue = [719, 2]"] ;
876 -> 877 ;
878 [label="gini = 0.0\nsamples = 563\nvalue = [563, 0]"] ;
877 -> 878 ;
879 [label="X[42] <= 0.5\ngini = 0.025\nsamples = 158\nvalue = [156, 2]"] ;
877 -> 879 ;
880 [label="X[46] <= 0.5\ngini = 0.014\nsamples = 139\nvalue = [138, 1]"] ;
879 -> 880 ;
881 [label="gini = 0.0\nsamples = 105\nvalue = [105, 0]"] ;
880 -> 881 ;
882 [label="X[23] <= 0.5\ngini = 0.057\nsamples = 34\nvalue = [33, 1]"] ;
880 -> 882 ;
883 [label="gini = 0.0\nsamples = 18\nvalue = [18, 0]"] ;
882 -> 883 ;
884 [label="X[50] <= 0.5\ngini = 0.117\nsamples = 16\nvalue = [15, 1]"] ;
882 -> 884 ;
885 [label="gini = 0.0\nsamples = 9\nvalue = [9, 0]"] ;
884 -> 885 ;
886 [label="X[7] <= 0.5\ngini = 0.245\nsamples = 7\nvalue = [6, 1]"] ;
884 -> 886 ;
887 [label="gini = 0.0\nsamples = 3\nvalue = [3, 0]"] ;
886 -> 887 ;
888 [label="X[0] <= 0.144\ngini = 0.375\nsamples = 4\nvalue = [3, 1]"] ;
886 -> 888 ;
889 [label="gini = 0.5\nsamples = 2\nvalue = [1, 1]"] ;
888 -> 889 ;
890 [label="gini = 0.0\nsamples = 2\nvalue = [2, 0]"] ;
888 -> 890 ;
891 [label="X[23] <= 0.5\ngini = 0.1\nsamples = 19\nvalue = [18, 1]"] ;
879 -> 891 ;
892 [label="gini = 0.0\nsamples = 11\nvalue = [11, 0]"] ;
891 -> 892 ;
893 [label="X[0] <= 0.144\ngini = 0.219\nsamples = 8\nvalue = [7, 1]"] ;
891 -> 893 ;
894 [label="X[4] <= 0.49\ngini = 0.444\nsamples = 3\nvalue = [2, 1]"] ;
893 -> 894 ;
895 [label="gini = 0.0\nsamples = 2\nvalue = [2, 0]"] ;
894 -> 895 ;
896 [label="gini = 0.0\nsamples = 1\nvalue = [0, 1]"] ;
894 -> 896 ;
897 [label="gini = 0.0\nsamples = 5\nvalue = [5, 0]"] ;
893 -> 897 ;
898 [label="X[0] <= 0.034\ngini = 0.133\nsamples = 14\nvalue = [13, 1]"] ;
876 -> 898 ;
899 [label="X[35] <= 0.5\ngini = 0.5\nsamples = 2\nvalue = [1, 1]"] ;
898 -> 899 ;
900 [label="gini = 0.0\nsamples = 1\nvalue = [0, 1]"] ;
899 -> 900 ;
901 [label="gini = 0.0\nsamples = 1\nvalue = [1, 0]"] ;
899 -> 901 ;
902 [label="gini = 0.0\nsamples = 12\nvalue = [12, 0]"] ;
898 -> 902 ;
903 [label="X[4] <= 0.582\ngini = 0.147\nsamples = 25\nvalue = [23, 2]"] ;
875 -> 903 ;
904 [label="gini = 0.0\nsamples = 18\nvalue = [18, 0]"] ;
903 -> 904 ;
905 [label="X[20] <= 0.5\ngini = 0.408\nsamples = 7\nvalue = [5, 2]"] ;
903 -> 905 ;
906 [label="X[45] <= 0.5\ngini = 0.278\nsamples = 6\nvalue = [5, 1]"] ;
905 -> 906 ;
907 [label="gini = 0.0\nsamples = 4\nvalue = [4, 0]"] ;
906 -> 907 ;
908 [label="X[33] <= 0.5\ngini = 0.5\nsamples = 2\nvalue = [1, 1]"] ;
906 -> 908 ;
909 [label="gini = 0.0\nsamples = 1\nvalue = [0, 1]"] ;
908 -> 909 ;
910 [label="gini = 0.0\nsamples = 1\nvalue = [1, 0]"] ;
908 -> 910 ;
911 [label="gini = 0.0\nsamples = 1\nvalue = [0, 1]"] ;
905 -> 911 ;
912 [label="X[9] <= 0.5\ngini = 0.208\nsamples = 17\nvalue = [15, 2]"] ;
874 -> 912 ;
913 [label="X[41] <= 0.5\ngini = 0.117\nsamples = 16\nvalue = [15, 1]"] ;
912 -> 913 ;
914 [label="gini = 0.0\nsamples = 15\nvalue = [15, 0]"] ;
913 -> 914 ;
915 [label="gini = 0.0\nsamples = 1\nvalue = [0, 1]"] ;
913 -> 915 ;
916 [label="gini = 0.0\nsamples = 1\nvalue = [0, 1]"] ;
912 -> 916 ;
917 [label="X[4] <= 0.628\ngini = 0.375\nsamples = 4\nvalue = [3, 1]"] ;
873 -> 917 ;
918 [label="gini = 0.0\nsamples = 3\nvalue = [3, 0]"] ;
917 -> 918 ;
919 [label="gini = 0.0\nsamples = 1\nvalue = [0, 1]"] ;
917 -> 919 ;
920 [label="X[0] <= 0.082\ngini = 0.5\nsamples = 2\nvalue = [1, 1]"] ;
872 -> 920 ;
921 [label="gini = 0.0\nsamples = 1\nvalue = [1, 0]"] ;
920 -> 921 ;
922 [label="gini = 0.0\nsamples = 1\nvalue = [0, 1]"] ;
920 -> 922 ;
923 [label="X[4] <= 0.592\ngini = 0.176\nsamples = 72\nvalue = [65, 7]"] ;
871 -> 923 ;
924 [label="X[28] <= 0.5\ngini = 0.035\nsamples = 56\nvalue = [55, 1]"] ;
923 -> 924 ;
925 [label="gini = 0.0\nsamples = 49\nvalue = [49, 0]"] ;
924 -> 925 ;
926 [label="X[0] <= 0.11\ngini = 0.245\nsamples = 7\nvalue = [6, 1]"] ;
924 -> 926 ;
927 [label="X[4] <= 0.474\ngini = 0.444\nsamples = 3\nvalue = [2, 1]"] ;
926 -> 927 ;
928 [label="gini = 0.0\nsamples = 1\nvalue = [0, 1]"] ;
927 -> 928 ;
929 [label="gini = 0.0\nsamples = 2\nvalue = [2, 0]"] ;
927 -> 929 ;
930 [label="gini = 0.0\nsamples = 4\nvalue = [4, 0]"] ;
926 -> 930 ;
931 [label="X[7] <= 0.5\ngini = 0.469\nsamples = 16\nvalue = [10, 6]"] ;
923 -> 931 ;
932 [label="X[60] <= 0.5\ngini = 0.32\nsamples = 5\nvalue = [1, 4]"] ;
931 -> 932 ;
933 [label="gini = 0.0\nsamples = 4\nvalue = [0, 4]"] ;
932 -> 933 ;
934 [label="gini = 0.0\nsamples = 1\nvalue = [1, 0]"] ;
932 -> 934 ;
935 [label="X[1] <= 0.633\ngini = 0.298\nsamples = 11\nvalue = [9, 2]"] ;
931 -> 935 ;
936 [label="gini = 0.0\nsamples = 8\nvalue = [8, 0]"] ;
935 -> 936 ;
937 [label="X[50] <= 0.5\ngini = 0.444\nsamples = 3\nvalue = [1, 2]"] ;
935 -> 937 ;
938 [label="gini = 0.0\nsamples = 1\nvalue = [1, 0]"] ;
937 -> 938 ;
939 [label="gini = 0.0\nsamples = 2\nvalue = [0, 2]"] ;
937 -> 939 ;
940 [label="X[2] <= 0.047\ngini = 0.152\nsamples = 1917\nvalue = [1758, 159]"] ;
870 -> 940 ;
941 [label="X[1] <= 0.567\ngini = 0.146\nsamples = 1892\nvalue = [1742, 150]"] ;
940 -> 941 ;
942 [label="X[54] <= 0.5\ngini = 0.102\nsamples = 1052\nvalue = [995, 57]"] ;
941 -> 942 ;
943 [label="X[60] <= 0.5\ngini = 0.101\nsamples = 1051\nvalue = [995, 56]"] ;
942 -> 943 ;
944 [label="X[0] <= 0.473\ngini = 0.138\nsamples = 668\nvalue = [618, 50]"] ;
943 -> 944 ;
945 [label="X[46] <= 0.5\ngini = 0.113\nsamples = 567\nvalue = [533, 34]"] ;
944 -> 945 ;
946 [label="X[80] <= 0.5\ngini = 0.092\nsamples = 518\nvalue = [493, 25]"] ;
945 -> 946 ;
947 [label="X[50] <= 0.5\ngini = 0.089\nsamples = 516\nvalue = [492, 24]"] ;
946 -> 947 ;
948 [label="X[51] <= 0.5\ngini = 0.013\nsamples = 155\nvalue = [154, 1]"] ;
947 -> 948 ;
949 [label="gini = 0.0\nsamples = 136\nvalue = [136, 0]"] ;
948 -> 949 ;
950 [label="X[0] <= 0.384\ngini = 0.1\nsamples = 19\nvalue = [18, 1]"] ;
948 -> 950 ;
951 [label="gini = 0.0\nsamples = 15\nvalue = [15, 0]"] ;
950 -> 951 ;
952 [label="X[37] <= 0.5\ngini = 0.375\nsamples = 4\nvalue = [3, 1]"] ;
950 -> 952 ;
953 [label="gini = 0.0\nsamples = 3\nvalue = [3, 0]"] ;
952 -> 953 ;
954 [label="gini = 0.0\nsamples = 1\nvalue = [0, 1]"] ;
952 -> 954 ;
955 [label="X[7] <= 0.5\ngini = 0.119\nsamples = 361\nvalue = [338, 23]"] ;
947 -> 955 ;
956 [label="X[72] <= 0.5\ngini = 0.224\nsamples = 78\nvalue = [68, 10]"] ;
955 -> 956 ;
957 [label="X[0] <= 0.185\ngini = 0.206\nsamples = 77\nvalue = [68, 9]"] ;
956 -> 957 ;
958 [label="X[37] <= 0.5\ngini = 0.42\nsamples = 10\nvalue = [7, 3]"] ;
957 -> 958 ;
959 [label="gini = 0.0\nsamples = 4\nvalue = [4, 0]"] ;
958 -> 959 ;
960 [label="X[13] <= 0.5\ngini = 0.5\nsamples = 6\nvalue = [3, 3]"] ;
958 -> 960 ;
961 [label="X[4] <= 0.474\ngini = 0.48\nsamples = 5\nvalue = [3, 2]"] ;
960 -> 961 ;
962 [label="gini = 0.0\nsamples = 2\nvalue = [2, 0]"] ;
961 -> 962 ;
963 [label="gini = 0.444\nsamples = 3\nvalue = [1, 2]"] ;
961 -> 963 ;
964 [label="gini = 0.0\nsamples = 1\nvalue = [0, 1]"] ;
960 -> 964 ;
965 [label="X[35] <= 0.5\ngini = 0.163\nsamples = 67\nvalue = [61, 6]"] ;
957 -> 965 ;
966 [label="X[4] <= 0.582\ngini = 0.14\nsamples = 66\nvalue = [61, 5]"] ;
965 -> 966 ;
967 [label="X[0] <= 0.199\ngini = 0.045\nsamples = 43\nvalue = [42, 1]"] ;
966 -> 967 ;
968 [label="X[45] <= 0.5\ngini = 0.375\nsamples = 4\nvalue = [3, 1]"] ;
967 -> 968 ;
969 [label="gini = 0.0\nsamples = 3\nvalue = [3, 0]"] ;
968 -> 969 ;
970 [label="gini = 0.0\nsamples = 1\nvalue = [0, 1]"] ;
968 -> 970 ;
971 [label="gini = 0.0\nsamples = 39\nvalue = [39, 0]"] ;
967 -> 971 ;
972 [label="X[37] <= 0.5\ngini = 0.287\nsamples = 23\nvalue = [19, 4]"] ;
966 -> 972 ;
973 [label="X[38] <= 0.5\ngini = 0.18\nsamples = 20\nvalue = [18, 2]"] ;
972 -> 973 ;
974 [label="X[4] <= 0.679\ngini = 0.105\nsamples = 18\nvalue = [17, 1]"] ;
973 -> 974 ;
975 [label="gini = 0.0\nsamples = 11\nvalue = [11, 0]"] ;
974 -> 975 ;
976 [label="X[0] <= 0.267\ngini = 0.245\nsamples = 7\nvalue = [6, 1]"] ;
974 -> 976 ;
977 [label="X[0] <= 0.253\ngini = 0.5\nsamples = 2\nvalue = [1, 1]"] ;
976 -> 977 ;
978 [label="gini = 0.0\nsamples = 1\nvalue = [1, 0]"] ;
977 -> 978 ;
979 [label="gini = 0.0\nsamples = 1\nvalue = [0, 1]"] ;
977 -> 979 ;
980 [label="gini = 0.0\nsamples = 5\nvalue = [5, 0]"] ;
976 -> 980 ;
981 [label="X[4] <= 0.628\ngini = 0.5\nsamples = 2\nvalue = [1, 1]"] ;
973 -> 981 ;
982 [label="gini = 0.0\nsamples = 1\nvalue = [0, 1]"] ;
981 -> 982 ;
983 [label="gini = 0.0\nsamples = 1\nvalue = [1, 0]"] ;
981 -> 983 ;
984 [label="X[0] <= 0.205\ngini = 0.444\nsamples = 3\nvalue = [1, 2]"] ;
972 -> 984 ;
985 [label="gini = 0.0\nsamples = 1\nvalue = [1, 0]"] ;
984 -> 985 ;
986 [label="gini = 0.0\nsamples = 2\nvalue = [0, 2]"] ;
984 -> 986 ;
987 [label="gini = 0.0\nsamples = 1\nvalue = [0, 1]"] ;
965 -> 987 ;
988 [label="gini = 0.0\nsamples = 1\nvalue = [0, 1]"] ;
956 -> 988 ;
989 [label="X[70] <= 0.5\ngini = 0.088\nsamples = 283\nvalue = [270, 13]"] ;
955 -> 989 ;
990 [label="X[14] <= 0.5\ngini = 0.082\nsamples = 281\nvalue = [269, 12]"] ;
989 -> 990 ;
991 [label="X[55] <= 0.5\ngini = 0.076\nsamples = 278\nvalue = [267, 11]"] ;
990 -> 991 ;
992 [label="X[0] <= 0.295\ngini = 0.07\nsamples = 275\nvalue = [265, 10]"] ;
991 -> 992 ;
993 [label="X[35] <= 0.5\ngini = 0.035\nsamples = 169\nvalue = [166, 3]"] ;
992 -> 993 ;
994 [label="X[0] <= 0.199\ngini = 0.024\nsamples = 162\nvalue = [160, 2]"] ;
993 -> 994 ;
995 [label="X[48] <= 0.5\ngini = 0.069\nsamples = 56\nvalue = [54, 2]"] ;
994 -> 995 ;
996 [label="X[37] <= 0.5\ngini = 0.042\nsamples = 47\nvalue = [46, 1]"] ;
995 -> 996 ;
997 [label="gini = 0.0\nsamples = 30\nvalue = [30, 0]"] ;
996 -> 997 ;
998 [label="X[0] <= 0.185\ngini = 0.111\nsamples = 17\nvalue = [16, 1]"] ;
996 -> 998 ;
999 [label="gini = 0.0\nsamples = 11\nvalue = [11, 0]"] ;
998 -> 999 ;
1000 [label="X[4] <= 0.474\ngini = 0.278\nsamples = 6\nvalue = [5, 1]"] ;
998 -> 1000 ;
1001 [label="gini = 0.0\nsamples = 4\nvalue = [4, 0]"] ;
1000 -> 1001 ;
1002 [label="gini = 0.5\nsamples = 2\nvalue = [1, 1]"] ;
1000 -> 1002 ;
1003 [label="X[4] <= 0.474\ngini = 0.198\nsamples = 9\nvalue = [8, 1]"] ;
995 -> 1003 ;
1004 [label="X[32] <= 0.5\ngini = 0.375\nsamples = 4\nvalue = [3, 1]"] ;
1003 -> 1004 ;
1005 [label="gini = 0.0\nsamples = 3\nvalue = [3, 0]"] ;
1004 -> 1005 ;
1006 [label="gini = 0.0\nsamples = 1\nvalue = [0, 1]"] ;
1004 -> 1006 ;
1007 [label="gini = 0.0\nsamples = 5\nvalue = [5, 0]"] ;
1003 -> 1007 ;
1008 [label="gini = 0.0\nsamples = 106\nvalue = [106, 0]"] ;
994 -> 1008 ;
1009 [label="X[33] <= 0.5\ngini = 0.245\nsamples = 7\nvalue = [6, 1]"] ;
993 -> 1009 ;
1010 [label="gini = 0.0\nsamples = 4\nvalue = [4, 0]"] ;
1009 -> 1010 ;
1011 [label="X[0] <= 0.226\ngini = 0.444\nsamples = 3\nvalue = [2, 1]"] ;
1009 -> 1011 ;
1012 [label="gini = 0.0\nsamples = 2\nvalue = [2, 0]"] ;
1011 -> 1012 ;
1013 [label="gini = 0.0\nsamples = 1\nvalue = [0, 1]"] ;
1011 -> 1013 ;
1014 [label="X[4] <= 0.434\ngini = 0.123\nsamples = 106\nvalue = [99, 7]"] ;
992 -> 1014 ;
1015 [label="X[37] <= 0.5\ngini = 0.444\nsamples = 6\nvalue = [4, 2]"] ;
1014 -> 1015 ;
1016 [label="gini = 0.0\nsamples = 3\nvalue = [3, 0]"] ;
1015 -> 1016 ;
1017 [label="X[0] <= 0.377\ngini = 0.444\nsamples = 3\nvalue = [1, 2]"] ;
1015 -> 1017 ;
1018 [label="gini = 0.0\nsamples = 2\nvalue = [0, 2]"] ;
1017 -> 1018 ;
1019 [label="gini = 0.0\nsamples = 1\nvalue = [1, 0]"] ;
1017 -> 1019 ;
1020 [label="X[47] <= 0.5\ngini = 0.095\nsamples = 100\nvalue = [95, 5]"] ;
1014 -> 1020 ;
1021 [label="X[3] <= 0.18\ngini = 0.078\nsamples = 98\nvalue = [94, 4]"] ;
1020 -> 1021 ;
1022 [label="X[4] <= 0.74\ngini = 0.062\nsamples = 93\nvalue = [90, 3]"] ;
1021 -> 1022 ;
1023 [label="X[38] <= 0.5\ngini = 0.044\nsamples = 88\nvalue = [86, 2]"] ;
1022 -> 1023 ;
1024 [label="X[4] <= 0.577\ngini = 0.025\nsamples = 79\nvalue = [78, 1]"] ;
1023 -> 1024 ;
1025 [label="gini = 0.0\nsamples = 63\nvalue = [63, 0]"] ;
1024 -> 1025 ;
1026 [label="X[48] <= 0.5\ngini = 0.117\nsamples = 16\nvalue = [15, 1]"] ;
1024 -> 1026 ;
1027 [label="gini = 0.0\nsamples = 12\nvalue = [12, 0]"] ;
1026 -> 1027 ;
1028 [label="X[0] <= 0.342\ngini = 0.375\nsamples = 4\nvalue = [3, 1]"] ;
1026 -> 1028 ;
1029 [label="gini = 0.0\nsamples = 1\nvalue = [0, 1]"] ;
1028 -> 1029 ;
1030 [label="gini = 0.0\nsamples = 3\nvalue = [3, 0]"] ;
1028 -> 1030 ;
1031 [label="X[0] <= 0.37\ngini = 0.198\nsamples = 9\nvalue = [8, 1]"] ;
1023 -> 1031 ;
1032 [label="gini = 0.0\nsamples = 5\nvalue = [5, 0]"] ;
1031 -> 1032 ;
1033 [label="X[4] <= 0.464\ngini = 0.375\nsamples = 4\nvalue = [3, 1]"] ;
1031 -> 1033 ;
1034 [label="gini = 0.0\nsamples = 3\nvalue = [3, 0]"] ;
1033 -> 1034 ;
1035 [label="gini = 0.0\nsamples = 1\nvalue = [0, 1]"] ;
1033 -> 1035 ;
1036 [label="X[4] <= 0.781\ngini = 0.32\nsamples = 5\nvalue = [4, 1]"] ;
1022 -> 1036 ;
1037 [label="gini = 0.0\nsamples = 1\nvalue = [0, 1]"] ;
1036 -> 1037 ;
1038 [label="gini = 0.0\nsamples = 4\nvalue = [4, 0]"] ;
1036 -> 1038 ;
1039 [label="X[4] <= 0.49\ngini = 0.32\nsamples = 5\nvalue = [4, 1]"] ;
1021 -> 1039 ;
1040 [label="gini = 0.0\nsamples = 4\nvalue = [4, 0]"] ;
1039 -> 1040 ;
1041 [label="gini = 0.0\nsamples = 1\nvalue = [0, 1]"] ;
1039 -> 1041 ;
1042 [label="X[0] <= 0.336\ngini = 0.5\nsamples = 2\nvalue = [1, 1]"] ;
1020 -> 1042 ;
1043 [label="gini = 0.0\nsamples = 1\nvalue = [1, 0]"] ;
1042 -> 1043 ;
1044 [label="gini = 0.0\nsamples = 1\nvalue = [0, 1]"] ;
1042 -> 1044 ;
1045 [label="X[0] <= 0.212\ngini = 0.444\nsamples = 3\nvalue = [2, 1]"] ;
991 -> 1045 ;
1046 [label="gini = 0.0\nsamples = 1\nvalue = [1, 0]"] ;
1045 -> 1046 ;
1047 [label="X[0] <= 0.26\ngini = 0.5\nsamples = 2\nvalue = [1, 1]"] ;
1045 -> 1047 ;
1048 [label="gini = 0.0\nsamples = 1\nvalue = [0, 1]"] ;
1047 -> 1048 ;
1049 [label="gini = 0.0\nsamples = 1\nvalue = [1, 0]"] ;
1047 -> 1049 ;
1050 [label="X[4] <= 0.724\ngini = 0.444\nsamples = 3\nvalue = [2, 1]"] ;
990 -> 1050 ;
1051 [label="gini = 0.0\nsamples = 2\nvalue = [2, 0]"] ;
1050 -> 1051 ;
1052 [label="gini = 0.0\nsamples = 1\nvalue = [0, 1]"] ;
1050 -> 1052 ;
1053 [label="X[0] <= 0.267\ngini = 0.5\nsamples = 2\nvalue = [1, 1]"] ;
989 -> 1053 ;
1054 [label="gini = 0.0\nsamples = 1\nvalue = [1, 0]"] ;
1053 -> 1054 ;
1055 [label="gini = 0.0\nsamples = 1\nvalue = [0, 1]"] ;
1053 -> 1055 ;
1056 [label="X[0] <= 0.212\ngini = 0.5\nsamples = 2\nvalue = [1, 1]"] ;
946 -> 1056 ;
1057 [label="gini = 0.0\nsamples = 1\nvalue = [0, 1]"] ;
1056 -> 1057 ;
1058 [label="gini = 0.0\nsamples = 1\nvalue = [1, 0]"] ;
1056 -> 1058 ;
1059 [label="X[4] <= 0.439\ngini = 0.3\nsamples = 49\nvalue = [40, 9]"] ;
945 -> 1059 ;
1060 [label="X[0] <= 0.212\ngini = 0.444\nsamples = 3\nvalue = [1, 2]"] ;
1059 -> 1060 ;
1061 [label="gini = 0.0\nsamples = 2\nvalue = [0, 2]"] ;
1060 -> 1061 ;
1062 [label="gini = 0.0\nsamples = 1\nvalue = [1, 0]"] ;
1060 -> 1062 ;
1063 [label="X[4] <= 0.49\ngini = 0.258\nsamples = 46\nvalue = [39, 7]"] ;
1059 -> 1063 ;
1064 [label="gini = 0.0\nsamples = 11\nvalue = [11, 0]"] ;
1063 -> 1064 ;
1065 [label="X[0] <= 0.226\ngini = 0.32\nsamples = 35\nvalue = [28, 7]"] ;
1063 -> 1065 ;
1066 [label="gini = 0.0\nsamples = 8\nvalue = [8, 0]"] ;
1065 -> 1066 ;
1067 [label="X[9] <= 0.5\ngini = 0.384\nsamples = 27\nvalue = [20, 7]"] ;
1065 -> 1067 ;
1068 [label="X[53] <= 0.5\ngini = 0.33\nsamples = 24\nvalue = [19, 5]"] ;
1067 -> 1068 ;
1069 [label="X[0] <= 0.281\ngini = 0.266\nsamples = 19\nvalue = [16, 3]"] ;
1068 -> 1069 ;
1070 [label="gini = 0.0\nsamples = 5\nvalue = [5, 0]"] ;
1069 -> 1070 ;
1071 [label="X[0] <= 0.356\ngini = 0.337\nsamples = 14\nvalue = [11, 3]"] ;
1069 -> 1071 ;
1072 [label="X[0] <= 0.336\ngini = 0.42\nsamples = 10\nvalue = [7, 3]"] ;
1071 -> 1072 ;
1073 [label="X[28] <= 0.5\ngini = 0.346\nsamples = 9\nvalue = [7, 2]"] ;
1072 -> 1073 ;
1074 [label="gini = 0.0\nsamples = 4\nvalue = [4, 0]"] ;
1073 -> 1074 ;
1075 [label="X[0] <= 0.322\ngini = 0.48\nsamples = 5\nvalue = [3, 2]"] ;
1073 -> 1075 ;
1076 [label="X[4] <= 0.551\ngini = 0.5\nsamples = 4\nvalue = [2, 2]"] ;
1075 -> 1076 ;
1077 [label="gini = 0.0\nsamples = 1\nvalue = [0, 1]"] ;
1076 -> 1077 ;
1078 [label="X[0] <= 0.308\ngini = 0.444\nsamples = 3\nvalue = [2, 1]"] ;
1076 -> 1078 ;
1079 [label="gini = 0.0\nsamples = 2\nvalue = [2, 0]"] ;
1078 -> 1079 ;
1080 [label="gini = 0.0\nsamples = 1\nvalue = [0, 1]"] ;
1078 -> 1080 ;
1081 [label="gini = 0.0\nsamples = 1\nvalue = [1, 0]"] ;
1075 -> 1081 ;
1082 [label="gini = 0.0\nsamples = 1\nvalue = [0, 1]"] ;
1072 -> 1082 ;
1083 [label="gini = 0.0\nsamples = 4\nvalue = [4, 0]"] ;
1071 -> 1083 ;
1084 [label="X[0] <= 0.267\ngini = 0.48\nsamples = 5\nvalue = [3, 2]"] ;
1068 -> 1084 ;
1085 [label="gini = 0.0\nsamples = 2\nvalue = [0, 2]"] ;
1084 -> 1085 ;
1086 [label="gini = 0.0\nsamples = 3\nvalue = [3, 0]"] ;
1084 -> 1086 ;
1087 [label="X[0] <= 0.308\ngini = 0.444\nsamples = 3\nvalue = [1, 2]"] ;
1067 -> 1087 ;
1088 [label="gini = 0.0\nsamples = 1\nvalue = [0, 1]"] ;
1087 -> 1088 ;
1089 [label="X[0] <= 0.404\ngini = 0.5\nsamples = 2\nvalue = [1, 1]"] ;
1087 -> 1089 ;
1090 [label="gini = 0.0\nsamples = 1\nvalue = [1, 0]"] ;
1089 -> 1090 ;
1091 [label="gini = 0.0\nsamples = 1\nvalue = [0, 1]"] ;
1089 -> 1091 ;
1092 [label="X[50] <= 0.5\ngini = 0.267\nsamples = 101\nvalue = [85, 16]"] ;
944 -> 1092 ;
1093 [label="X[59] <= 0.5\ngini = 0.454\nsamples = 23\nvalue = [15, 8]"] ;
1092 -> 1093 ;
1094 [label="X[0] <= 0.5\ngini = 0.32\nsamples = 5\nvalue = [1, 4]"] ;
1093 -> 1094 ;
1095 [label="gini = 0.0\nsamples = 1\nvalue = [1, 0]"] ;
1094 -> 1095 ;
1096 [label="gini = 0.0\nsamples = 4\nvalue = [0, 4]"] ;
1094 -> 1096 ;
1097 [label="X[38] <= 0.5\ngini = 0.346\nsamples = 18\nvalue = [14, 4]"] ;
1093 -> 1097 ;
1098 [label="X[3] <= 0.075\ngini = 0.219\nsamples = 16\nvalue = [14, 2]"] ;
1097 -> 1098 ;
1099 [label="X[51] <= 0.5\ngini = 0.124\nsamples = 15\nvalue = [14, 1]"] ;
1098 -> 1099 ;
1100 [label="gini = 0.0\nsamples = 12\nvalue = [12, 0]"] ;
1099 -> 1100 ;
1101 [label="X[0] <= 0.548\ngini = 0.444\nsamples = 3\nvalue = [2, 1]"] ;
1099 -> 1101 ;
1102 [label="gini = 0.0\nsamples = 1\nvalue = [0, 1]"] ;
1101 -> 1102 ;
1103 [label="gini = 0.0\nsamples = 2\nvalue = [2, 0]"] ;
1101 -> 1103 ;
1104 [label="gini = 0.0\nsamples = 1\nvalue = [0, 1]"] ;
1098 -> 1104 ;
1105 [label="gini = 0.0\nsamples = 2\nvalue = [0, 2]"] ;
1097 -> 1105 ;
1106 [label="X[47] <= 0.5\ngini = 0.184\nsamples = 78\nvalue = [70, 8]"] ;
1092 -> 1106 ;
1107 [label="X[0] <= 0.555\ngini = 0.165\nsamples = 77\nvalue = [70, 7]"] ;
1106 -> 1107 ;
1108 [label="X[39] <= 0.5\ngini = 0.273\nsamples = 43\nvalue = [36, 7]"] ;
1107 -> 1108 ;
1109 [label="X[1] <= 0.5\ngini = 0.245\nsamples = 42\nvalue = [36, 6]"] ;
1108 -> 1109 ;
1110 [label="gini = 0.0\nsamples = 14\nvalue = [14, 0]"] ;
1109 -> 1110 ;
1111 [label="X[4] <= 0.474\ngini = 0.337\nsamples = 28\nvalue = [22, 6]"] ;
1109 -> 1111 ;
1112 [label="X[41] <= 0.5\ngini = 0.142\nsamples = 13\nvalue = [12, 1]"] ;
1111 -> 1112 ;
1113 [label="gini = 0.0\nsamples = 12\nvalue = [12, 0]"] ;
1112 -> 1113 ;
1114 [label="gini = 0.0\nsamples = 1\nvalue = [0, 1]"] ;
1112 -> 1114 ;
1115 [label="X[35] <= 0.5\ngini = 0.444\nsamples = 15\nvalue = [10, 5]"] ;
1111 -> 1115 ;
1116 [label="X[0] <= 0.514\ngini = 0.408\nsamples = 14\nvalue = [10, 4]"] ;
1115 -> 1116 ;
1117 [label="gini = 0.0\nsamples = 5\nvalue = [5, 0]"] ;
1116 -> 1117 ;
1118 [label="X[42] <= 0.5\ngini = 0.494\nsamples = 9\nvalue = [5, 4]"] ;
1116 -> 1118 ;
1119 [label="X[4] <= 0.49\ngini = 0.49\nsamples = 7\nvalue = [3, 4]"] ;
1118 -> 1119 ;
1120 [label="gini = 0.0\nsamples = 1\nvalue = [1, 0]"] ;
1119 -> 1120 ;
1121 [label="X[28] <= 0.5\ngini = 0.444\nsamples = 6\nvalue = [2, 4]"] ;
1119 -> 1121 ;
1122 [label="X[34] <= 0.5\ngini = 0.444\nsamples = 3\nvalue = [2, 1]"] ;
1121 -> 1122 ;
1123 [label="gini = 0.0\nsamples = 2\nvalue = [2, 0]"] ;
1122 -> 1123 ;
1124 [label="gini = 0.0\nsamples = 1\nvalue = [0, 1]"] ;
1122 -> 1124 ;
1125 [label="gini = 0.0\nsamples = 3\nvalue = [0, 3]"] ;
1121 -> 1125 ;
1126 [label="gini = 0.0\nsamples = 2\nvalue = [2, 0]"] ;
1118 -> 1126 ;
1127 [label="gini = 0.0\nsamples = 1\nvalue = [0, 1]"] ;
1115 -> 1127 ;
1128 [label="gini = 0.0\nsamples = 1\nvalue = [0, 1]"] ;
1108 -> 1128 ;
1129 [label="gini = 0.0\nsamples = 34\nvalue = [34, 0]"] ;
1107 -> 1129 ;
1130 [label="gini = 0.0\nsamples = 1\nvalue = [0, 1]"] ;
1106 -> 1130 ;
1131 [label="X[73] <= 0.5\ngini = 0.031\nsamples = 383\nvalue = [377, 6]"] ;
943 -> 1131 ;
1132 [label="X[4] <= 0.985\ngini = 0.026\nsamples = 382\nvalue = [377, 5]"] ;
1131 -> 1132 ;
1133 [label="X[47] <= 0.5\ngini = 0.021\nsamples = 377\nvalue = [373, 4]"] ;
1132 -> 1133 ;
1134 [label="X[4] <= 0.597\ngini = 0.016\nsamples = 368\nvalue = [365, 3]"] ;
1133 -> 1134 ;
1135 [label="gini = 0.0\nsamples = 299\nvalue = [299, 0]"] ;
1134 -> 1135 ;
1136 [label="X[37] <= 0.5\ngini = 0.083\nsamples = 69\nvalue = [66, 3]"] ;
1134 -> 1136 ;
1137 [label="X[31] <= 0.5\ngini = 0.057\nsamples = 68\nvalue = [66, 2]"] ;
1136 -> 1137 ;
1138 [label="X[46] <= 0.5\ngini = 0.031\nsamples = 63\nvalue = [62, 1]"] ;
1137 -> 1138 ;
1139 [label="gini = 0.0\nsamples = 56\nvalue = [56, 0]"] ;
1138 -> 1139 ;
1140 [label="X[32] <= 0.5\ngini = 0.245\nsamples = 7\nvalue = [6, 1]"] ;
1138 -> 1140 ;
1141 [label="gini = 0.0\nsamples = 4\nvalue = [4, 0]"] ;
1140 -> 1141 ;
1142 [label="X[50] <= 0.5\ngini = 0.444\nsamples = 3\nvalue = [2, 1]"] ;
1140 -> 1142 ;
1143 [label="gini = 0.0\nsamples = 2\nvalue = [2, 0]"] ;
1142 -> 1143 ;
1144 [label="gini = 0.0\nsamples = 1\nvalue = [0, 1]"] ;
1142 -> 1144 ;
1145 [label="X[0] <= 0.308\ngini = 0.32\nsamples = 5\nvalue = [4, 1]"] ;
1137 -> 1145 ;
1146 [label="gini = 0.0\nsamples = 3\nvalue = [3, 0]"] ;
1145 -> 1146 ;
1147 [label="X[0] <= 0.493\ngini = 0.5\nsamples = 2\nvalue = [1, 1]"] ;
1145 -> 1147 ;
1148 [label="gini = 0.0\nsamples = 1\nvalue = [0, 1]"] ;
1147 -> 1148 ;
1149 [label="gini = 0.0\nsamples = 1\nvalue = [1, 0]"] ;
1147 -> 1149 ;
1150 [label="gini = 0.0\nsamples = 1\nvalue = [0, 1]"] ;
1136 -> 1150 ;
1151 [label="X[28] <= 0.5\ngini = 0.198\nsamples = 9\nvalue = [8, 1]"] ;
1133 -> 1151 ;
1152 [label="gini = 0.0\nsamples = 4\nvalue = [4, 0]"] ;
1151 -> 1152 ;
1153 [label="X[50] <= 0.5\ngini = 0.32\nsamples = 5\nvalue = [4, 1]"] ;
1151 -> 1153 ;
1154 [label="gini = 0.0\nsamples = 3\nvalue = [3, 0]"] ;
1153 -> 1154 ;
1155 [label="X[4] <= 0.464\ngini = 0.5\nsamples = 2\nvalue = [1, 1]"] ;
1153 -> 1155 ;
1156 [label="gini = 0.0\nsamples = 1\nvalue = [1, 0]"] ;
1155 -> 1156 ;
1157 [label="gini = 0.0\nsamples = 1\nvalue = [0, 1]"] ;
1155 -> 1157 ;
1158 [label="X[0] <= 0.397\ngini = 0.32\nsamples = 5\nvalue = [4, 1]"] ;
1132 -> 1158 ;
1159 [label="X[0] <= 0.178\ngini = 0.5\nsamples = 2\nvalue = [1, 1]"] ;
1158 -> 1159 ;
1160 [label="gini = 0.0\nsamples = 1\nvalue = [1, 0]"] ;
1159 -> 1160 ;
1161 [label="gini = 0.0\nsamples = 1\nvalue = [0, 1]"] ;
1159 -> 1161 ;
1162 [label="gini = 0.0\nsamples = 3\nvalue = [3, 0]"] ;
1158 -> 1162 ;
1163 [label="gini = 0.0\nsamples = 1\nvalue = [0, 1]"] ;
1131 -> 1163 ;
1164 [label="gini = 0.0\nsamples = 1\nvalue = [0, 1]"] ;
942 -> 1164 ;
1165 [label="X[4] <= 0.857\ngini = 0.197\nsamples = 840\nvalue = [747, 93]"] ;
941 -> 1165 ;
1166 [label="X[29] <= 0.5\ngini = 0.191\nsamples = 832\nvalue = [743, 89]"] ;
1165 -> 1166 ;
1167 [label="X[0] <= 0.404\ngini = 0.189\nsamples = 831\nvalue = [743, 88]"] ;
1166 -> 1167 ;
1168 [label="X[45] <= 0.5\ngini = 0.162\nsamples = 630\nvalue = [574, 56]"] ;
1167 -> 1168 ;
1169 [label="X[4] <= 0.454\ngini = 0.152\nsamples = 615\nvalue = [564, 51]"] ;
1168 -> 1169 ;
1170 [label="X[5] <= 0.5\ngini = 0.099\nsamples = 191\nvalue = [181, 10]"] ;
1169 -> 1170 ;
1171 [label="X[0] <= 0.281\ngini = 0.092\nsamples = 187\nvalue = [178, 9]"] ;
1170 -> 1171 ;
1172 [label="X[0] <= 0.24\ngini = 0.137\nsamples = 95\nvalue = [88, 7]"] ;
1171 -> 1172 ;
1173 [label="X[4] <= 0.413\ngini = 0.059\nsamples = 66\nvalue = [64, 2]"] ;
1172 -> 1173 ;
1174 [label="X[0] <= 0.171\ngini = 0.375\nsamples = 4\nvalue = [3, 1]"] ;
1173 -> 1174 ;
1175 [label="gini = 0.0\nsamples = 1\nvalue = [0, 1]"] ;
1174 -> 1175 ;
1176 [label="gini = 0.0\nsamples = 3\nvalue = [3, 0]"] ;
1174 -> 1176 ;
1177 [label="X[46] <= 0.5\ngini = 0.032\nsamples = 62\nvalue = [61, 1]"] ;
1173 -> 1177 ;
1178 [label="gini = 0.0\nsamples = 53\nvalue = [53, 0]"] ;
1177 -> 1178 ;
1179 [label="X[0] <= 0.185\ngini = 0.198\nsamples = 9\nvalue = [8, 1]"] ;
1177 -> 1179 ;
1180 [label="X[60] <= 0.5\ngini = 0.5\nsamples = 2\nvalue = [1, 1]"] ;
1179 -> 1180 ;
1181 [label="gini = 0.0\nsamples = 1\nvalue = [0, 1]"] ;
1180 -> 1181 ;
1182 [label="gini = 0.0\nsamples = 1\nvalue = [1, 0]"] ;
1180 -> 1182 ;
1183 [label="gini = 0.0\nsamples = 7\nvalue = [7, 0]"] ;
1179 -> 1183 ;
1184 [label="X[9] <= 0.5\ngini = 0.285\nsamples = 29\nvalue = [24, 5]"] ;
1172 -> 1184 ;
1185 [label="X[27] <= 0.5\ngini = 0.245\nsamples = 28\nvalue = [24, 4]"] ;
1184 -> 1185 ;
1186 [label="X[46] <= 0.5\ngini = 0.426\nsamples = 13\nvalue = [9, 4]"] ;
1185 -> 1186 ;
1187 [label="X[41] <= 0.5\ngini = 0.375\nsamples = 12\nvalue = [9, 3]"] ;
1186 -> 1187 ;
1188 [label="X[37] <= 0.5\ngini = 0.298\nsamples = 11\nvalue = [9, 2]"] ;
1187 -> 1188 ;
1189 [label="X[4] <= 0.423\ngini = 0.198\nsamples = 9\nvalue = [8, 1]"] ;
1188 -> 1189 ;
1190 [label="X[32] <= 0.5\ngini = 0.5\nsamples = 2\nvalue = [1, 1]"] ;
1189 -> 1190 ;
1191 [label="gini = 0.0\nsamples = 1\nvalue = [1, 0]"] ;
1190 -> 1191 ;
1192 [label="gini = 0.0\nsamples = 1\nvalue = [0, 1]"] ;
1190 -> 1192 ;
1193 [label="gini = 0.0\nsamples = 7\nvalue = [7, 0]"] ;
1189 -> 1193 ;
1194 [label="X[20] <= 0.5\ngini = 0.5\nsamples = 2\nvalue = [1, 1]"] ;
1188 -> 1194 ;
1195 [label="gini = 0.0\nsamples = 1\nvalue = [0, 1]"] ;
1194 -> 1195 ;
1196 [label="gini = 0.0\nsamples = 1\nvalue = [1, 0]"] ;
1194 -> 1196 ;
1197 [label="gini = 0.0\nsamples = 1\nvalue = [0, 1]"] ;
1187 -> 1197 ;
1198 [label="gini = 0.0\nsamples = 1\nvalue = [0, 1]"] ;
1186 -> 1198 ;
1199 [label="gini = 0.0\nsamples = 15\nvalue = [15, 0]"] ;
1185 -> 1199 ;
1200 [label="gini = 0.0\nsamples = 1\nvalue = [0, 1]"] ;
1184 -> 1200 ;
1201 [label="X[52] <= 0.5\ngini = 0.043\nsamples = 92\nvalue = [90, 2]"] ;
1171 -> 1201 ;
1202 [label="X[33] <= 0.5\ngini = 0.023\nsamples = 85\nvalue = [84, 1]"] ;
1201 -> 1202 ;
1203 [label="gini = 0.0\nsamples = 78\nvalue = [78, 0]"] ;
1202 -> 1203 ;
1204 [label="X[38] <= 0.5\ngini = 0.245\nsamples = 7\nvalue = [6, 1]"] ;
1202 -> 1204 ;
1205 [label="gini = 0.0\nsamples = 5\nvalue = [5, 0]"] ;
1204 -> 1205 ;
1206 [label="X[0] <= 0.329\ngini = 0.5\nsamples = 2\nvalue = [1, 1]"] ;
1204 -> 1206 ;
1207 [label="gini = 0.0\nsamples = 1\nvalue = [1, 0]"] ;
1206 -> 1207 ;
1208 [label="gini = 0.0\nsamples = 1\nvalue = [0, 1]"] ;
1206 -> 1208 ;
1209 [label="X[4] <= 0.444\ngini = 0.245\nsamples = 7\nvalue = [6, 1]"] ;
1201 -> 1209 ;
1210 [label="gini = 0.0\nsamples = 1\nvalue = [0, 1]"] ;
1209 -> 1210 ;
1211 [label="gini = 0.0\nsamples = 6\nvalue = [6, 0]"] ;
1209 -> 1211 ;
1212 [label="X[4] <= 0.444\ngini = 0.375\nsamples = 4\nvalue = [3, 1]"] ;
1170 -> 1212 ;
1213 [label="gini = 0.0\nsamples = 3\nvalue = [3, 0]"] ;
1212 -> 1213 ;
1214 [label="gini = 0.0\nsamples = 1\nvalue = [0, 1]"] ;
1212 -> 1214 ;
1215 [label="X[0] <= 0.295\ngini = 0.175\nsamples = 424\nvalue = [383, 41]"] ;
1169 -> 1215 ;
1216 [label="X[38] <= 0.5\ngini = 0.129\nsamples = 245\nvalue = [228, 17]"] ;
1215 -> 1216 ;
1217 [label="X[19] <= 0.5\ngini = 0.095\nsamples = 199\nvalue = [189, 10]"] ;
1216 -> 1217 ;
1218 [label="X[31] <= 0.5\ngini = 0.057\nsamples = 171\nvalue = [166, 5]"] ;
1217 -> 1218 ;
1219 [label="X[44] <= 0.5\ngini = 0.047\nsamples = 167\nvalue = [163, 4]"] ;
1218 -> 1219 ;
1220 [label="X[0] <= 0.212\ngini = 0.036\nsamples = 162\nvalue = [159, 3]"] ;
1219 -> 1220 ;
1221 [label="X[4] <= 0.51\ngini = 0.086\nsamples = 67\nvalue = [64, 3]"] ;
1220 -> 1221 ;
1222 [label="X[46] <= 0.5\ngini = 0.198\nsamples = 27\nvalue = [24, 3]"] ;
1221 -> 1222 ;
1223 [label="X[37] <= 0.5\ngini = 0.091\nsamples = 21\nvalue = [20, 1]"] ;
1222 -> 1223 ;
1224 [label="gini = 0.0\nsamples = 18\nvalue = [18, 0]"] ;
1223 -> 1224 ;
1225 [label="X[4] <= 0.48\ngini = 0.444\nsamples = 3\nvalue = [2, 1]"] ;
1223 -> 1225 ;
1226 [label="gini = 0.0\nsamples = 2\nvalue = [2, 0]"] ;
1225 -> 1226 ;
1227 [label="gini = 0.0\nsamples = 1\nvalue = [0, 1]"] ;
1225 -> 1227 ;
1228 [label="X[1] <= 0.633\ngini = 0.444\nsamples = 6\nvalue = [4, 2]"] ;
1222 -> 1228 ;
1229 [label="X[0] <= 0.185\ngini = 0.32\nsamples = 5\nvalue = [4, 1]"] ;
1228 -> 1229 ;
1230 [label="X[50] <= 0.5\ngini = 0.444\nsamples = 3\nvalue = [2, 1]"] ;
1229 -> 1230 ;
1231 [label="gini = 0.0\nsamples = 1\nvalue = [1, 0]"] ;
1230 -> 1231 ;
1232 [label="gini = 0.5\nsamples = 2\nvalue = [1, 1]"] ;
1230 -> 1232 ;
1233 [label="gini = 0.0\nsamples = 2\nvalue = [2, 0]"] ;
1229 -> 1233 ;
1234 [label="gini = 0.0\nsamples = 1\nvalue = [0, 1]"] ;
1228 -> 1234 ;
1235 [label="gini = 0.0\nsamples = 40\nvalue = [40, 0]"] ;
1221 -> 1235 ;
1236 [label="gini = 0.0\nsamples = 95\nvalue = [95, 0]"] ;
1220 -> 1236 ;
1237 [label="X[0] <= 0.267\ngini = 0.32\nsamples = 5\nvalue = [4, 1]"] ;
1219 -> 1237 ;
1238 [label="gini = 0.0\nsamples = 4\nvalue = [4, 0]"] ;
1237 -> 1238 ;
1239 [label="gini = 0.0\nsamples = 1\nvalue = [0, 1]"] ;
1237 -> 1239 ;
